COBYLA50-PauliFeature1-RealAmplitudes2
[0.1911057  0.8464123  0.81281442 0.16073049 0.38328906 0.91869971
 0.61867392 0.71948405 0.93707265 0.47941927 0.59965864 0.06323574]
[1.1911057  0.8464123  0.81281442 0.16073049 0.38328906 0.91869971
 0.61867392 0.71948405 0.93707265 0.47941927 0.59965864 0.06323574]
[0.1911057  1.8464123  0.81281442 0.16073049 0.38328906 0.91869971
 0.61867392 0.71948405 0.93707265 0.47941927 0.59965864 0.06323574]
[0.1911057  0.8464123  1.81281442 0.16073049 0.38328906 0.91869971
 0.61867392 0.71948405 0.93707265 0.47941927 0.59965864 0.06323574]
[0.1911057  0.8464123  0.81281442 1.16073049 0.38328906 0.91869971
 0.61867392 0.71948405 0.93707265 0.47941927 0.59965864 0.06323574]
[0.1911057  0.8464123  0.81281442 0.16073049 1.38328906 0.91869971
 0.61867392 0.71948405 0.93707265 0.47941927 0.59965864 0.06323574]
[0.1911057  0.8464123  0.81281442 0.16073049 0.38328906 1.91869971
 0.61867392 0.71948405 0.93707265 0.47941927 0.59965864 0.06323574]
[0.1911057  0.8464123  0.81281442 0.16073049 0.38328906 1.91869971
 1.61867392 0.71948405 0.93707265 0.47941927 0.59965864 0.06323574]
[0.1911057  0.8464123  0.81281442 0.16073049 0.38328906 1.91869971
 1.61867392 1.71948405 0.93707265 0.47941927 0.59965864 0.06323574]
[0.1911057  0.8464123  0.81281442 0.16073049 0.38328906 1.91869971
 1.61867392 1.71948405 1.93707265 0.47941927 0.59965864 0.06323574]
[0.1911057  0.8464123  0.81281442 0.16073049 0.38328906 1.91869971
 1.61867392 1.71948405 0.93707265 1.47941927 0.59965864 0.06323574]
[0.1911057  0.8464123  0.81281442 0.16073049 0.38328906 1.91869971
 1.61867392 1.71948405 0.93707265 0.47941927 1.59965864 0.06323574]
[0.1911057  0.8464123  0.81281442 0.16073049 0.38328906 1.91869971
 1.61867392 1.71948405 0.93707265 0.47941927 0.59965864 1.06323574]
[ 0.18586917  0.77620446  0.64673982  0.15220911  0.17378374  2.17321051
  1.79188298  1.81475886  0.13295391  0.19898424  0.34696952 -0.11152302]
[ 0.17720626  0.66005774  0.37199817  0.13811197 -0.17280652  2.59425452
  2.07842734  1.97237451  0.31415815 -0.26494693 -0.07106082 -0.40063111]
[ 0.18586917  0.77620446  0.25491378  0.15220911  0.48438373  2.17321051
  1.79188298  1.81475886  0.13295391  0.19898424  0.34696952 -0.11152302]
[ 0.18257062  0.73197962  1.28968166  0.14684138  0.80182928  2.33353018
  1.90098961  1.8747737  -0.15045656  0.02233456  0.18779736 -0.22160585]
[ 0.18586917  0.83644911  0.64673982 -0.3441482   0.17378374  2.17321051
  1.79188298  1.81475886  0.13295391  0.19898424  0.34696952 -0.11152302]
[ 0.1851426   1.74554934  0.62437103  0.36655615  0.10524813  2.20852425
  1.81591598  1.82797837  0.07052687  0.16007348  0.31190855 -0.13577105]
[-0.31402503  0.77620446  0.64673982  0.15220911  0.17378374  2.16292526
  1.79188298  1.81475886  0.13295391  0.19898424  0.34696952 -0.11152302]
[ 0.43917353  0.48513031  0.57731558  0.41698249 -0.03892478  1.36446532
  1.8664723   1.85578722 -0.06079596  0.07821999  0.23815355 -0.18677971]
[ 0.24536676  0.70008124  0.62858363  0.22145402  0.1181551   2.28967087
  1.32927527  1.82548881  0.08228344  0.16740135  0.31851141 -0.13120454]
[ 0.18586917  0.77620446  0.64673982  0.15220911  0.17378374  2.17321051
  1.79188298  1.81475886  0.13295391  0.36633428  0.16124402 -0.11152302]
[ 0.28865777  0.64469325  0.61537302  0.27183728  0.07767917  2.37440856
  1.91635916  1.83329602  0.04541512  0.39335389  0.65468872 -0.145525  ]
[0.18586917 0.77620446 0.64673982 0.15220911 0.17378374 2.17321051
 1.79188298 2.03425817 0.13295391 0.19898424 0.34696952 0.00814339]
[0.22986113 0.71991966 0.63331531 0.20340815 0.13265245 2.25932021
 1.84515689 1.56095256 0.09548864 0.09405015 0.30915982 0.27820557]
[ 0.21748     0.72640033  0.61668663  0.18870327  0.11813439  2.26730859
  1.85201593  1.83579203  0.26006958  0.08793186  0.2884993  -0.20568156]
[ 0.21766289  0.80793635  0.55970304  0.19859959  0.04624882  2.25841955
  1.84596643  1.83246447  0.27131606  0.09772633  0.29732471 -0.19957794]
[ 0.27676772  0.83235238  0.7246429   0.27805864  0.22242748  2.31774527
  1.87931677  1.82915215  0.22391801  0.01910548  0.30128003 -0.29344548]
[ 0.21758865  0.70762808  0.59224314  0.18642481  0.0872986   2.26202771
  1.87492202  1.84839168  0.16016192  0.05084563  0.25508234 -0.22879259]
[ 0.2613611   0.64536021  0.64099771  0.23082476  0.12713918  2.12603775
  1.82785383  1.80779164  0.41634587  0.11032588  0.35948191 -0.22220533]
[ 0.31534265  0.73576743  0.61668663  0.11152747  0.11813439  2.2693221
  1.85201593  1.83579203  0.26006958  0.08793186  0.2884993  -0.20568156]
[ 0.0565037   0.73001575  0.65247873  0.09305106  0.14495066  2.36871736
  1.83072667  1.8116316   0.35886311  0.108244    0.34980145 -0.21882049]
[ 0.21933432  0.72402785  0.70680037  0.19086138  0.04451905  2.27093823
  1.85863849  1.81546292  0.25849037  0.07720956  0.27883785 -0.16839268]
[ 0.23818672  0.70509039  0.53189814  0.25891984  0.19919009  2.32836048
  1.87236064  1.73515977  0.29519263  0.04895435  0.27171945 -0.04560313]
[ 0.20652053  0.74042224  0.62003101  0.17594834  0.1283812   2.24585656
  1.7576513   1.83381557  0.26940309  0.03253522  0.23858354 -0.20205622]
[ 0.27432041  0.65519002  0.60156788  0.26832046  0.07438208  2.38455916
  1.71990216  1.85124192  0.22706553  0.16634774  0.36451183 -0.24117598]
[ 0.22564439  0.74563992  0.63285363  0.20169524  0.13408588  2.27895866
  1.85016944  1.83761081  0.29597541  0.16905501  0.20800208 -0.20901767]
[ 0.14706804  0.63608597  0.5356655   0.19890561  0.11051049  2.20880339
  1.98119674  1.86519538  0.1723536   0.10926723  0.30622024 -0.32066163]
[ 0.21436909  0.72917661  0.61833379  0.20009386  0.12942622  2.26847941
  1.86785844  1.94890385  0.27605571  0.08264848  0.30725426 -0.16486745]
[ 0.22629577  0.71818314  0.6219846   0.20286535  0.12303177  2.23167138
  1.84927145  1.82489391  0.29618503  0.09534413  0.31416991 -0.21536834]
[ 0.2191971   0.73176367  0.61964627  0.19114074  0.12451719  2.2523272
  1.84631901  1.8344572   0.24076539  0.09920079  0.29244071 -0.19493197]
[ 0.18680095  0.73330124  0.61723438  0.15824278  0.12223207  2.30498554
  1.85759048  1.83014678  0.27512686  0.0873993   0.29999192 -0.21712306]
[ 0.21266302  0.72493981  0.62205586  0.18217255  0.10923004  2.25790671
  1.85136509  1.84706094  0.25248022  0.0920599   0.28653762 -0.22817968]
[ 0.23452968  0.70442706  0.59238977  0.21282655  0.10874182  2.27790768
  1.87403231  1.83059518  0.25862751  0.06434994  0.26231388 -0.2036052 ]
[ 0.21056952  0.73485266  0.61852562  0.18061732  0.12434562  2.25393124
  1.86882457  1.84387789  0.26545128  0.07896233  0.28102091 -0.19807791]
[ 0.2276119   0.7221682   0.61934991  0.20281868  0.11536116  2.28497081
  1.83844709  1.88611681  0.2709544   0.08978262  0.30187547 -0.19011952]
[ 0.22501983  0.74330688  0.62734293  0.20049602  0.12713186  2.27420273
  1.85565189  1.83472574  0.25865588  0.078635    0.29052244 -0.21776014]
[ 0.22125605  0.72299099  0.60920555  0.19791679  0.12676418  2.26623906
  1.83376145  1.82126667  0.21903663  0.11368681  0.3000495  -0.18039807]
[ 0.21510057  0.72720136  0.61561149  0.18645492  0.12018683  2.26401866
  1.8264945   1.83291486  0.26298326  0.07541654  0.27751341 -0.20378999]
COBYLA120-ZZFeature1-RealAmplitudes4
1648033698.459361
[0.4654673  0.25769588 0.95756071 0.83843585 0.9518328  0.96477426
 0.23343489 0.85168901 0.31691586 0.36245638 0.23767754 0.31027671
 0.92711308 0.07000743 0.66518527 0.02699016 0.13094884 0.27237383
 0.45803012 0.96814476]
[1.4654673  0.25769588 0.95756071 0.83843585 0.9518328  0.96477426
 0.23343489 0.85168901 0.31691586 0.36245638 0.23767754 0.31027671
 0.92711308 0.07000743 0.66518527 0.02699016 0.13094884 0.27237383
 0.45803012 0.96814476]
[1.4654673  1.25769588 0.95756071 0.83843585 0.9518328  0.96477426
 0.23343489 0.85168901 0.31691586 0.36245638 0.23767754 0.31027671
 0.92711308 0.07000743 0.66518527 0.02699016 0.13094884 0.27237383
 0.45803012 0.96814476]
[1.4654673  0.25769588 1.95756071 0.83843585 0.9518328  0.96477426
 0.23343489 0.85168901 0.31691586 0.36245638 0.23767754 0.31027671
 0.92711308 0.07000743 0.66518527 0.02699016 0.13094884 0.27237383
 0.45803012 0.96814476]
[1.4654673  0.25769588 1.95756071 1.83843585 0.9518328  0.96477426
 0.23343489 0.85168901 0.31691586 0.36245638 0.23767754 0.31027671
 0.92711308 0.07000743 0.66518527 0.02699016 0.13094884 0.27237383
 0.45803012 0.96814476]
[1.4654673  0.25769588 1.95756071 1.83843585 1.9518328  0.96477426
 0.23343489 0.85168901 0.31691586 0.36245638 0.23767754 0.31027671
 0.92711308 0.07000743 0.66518527 0.02699016 0.13094884 0.27237383
 0.45803012 0.96814476]
[1.4654673  0.25769588 1.95756071 1.83843585 0.9518328  1.96477426
 0.23343489 0.85168901 0.31691586 0.36245638 0.23767754 0.31027671
 0.92711308 0.07000743 0.66518527 0.02699016 0.13094884 0.27237383
 0.45803012 0.96814476]
[1.4654673  0.25769588 1.95756071 1.83843585 0.9518328  0.96477426
 1.23343489 0.85168901 0.31691586 0.36245638 0.23767754 0.31027671
 0.92711308 0.07000743 0.66518527 0.02699016 0.13094884 0.27237383
 0.45803012 0.96814476]
[1.4654673  0.25769588 1.95756071 1.83843585 0.9518328  0.96477426
 0.23343489 1.85168901 0.31691586 0.36245638 0.23767754 0.31027671
 0.92711308 0.07000743 0.66518527 0.02699016 0.13094884 0.27237383
 0.45803012 0.96814476]
[1.4654673  0.25769588 1.95756071 1.83843585 0.9518328  0.96477426
 0.23343489 1.85168901 1.31691586 0.36245638 0.23767754 0.31027671
 0.92711308 0.07000743 0.66518527 0.02699016 0.13094884 0.27237383
 0.45803012 0.96814476]
[1.4654673  0.25769588 1.95756071 1.83843585 0.9518328  0.96477426
 0.23343489 1.85168901 0.31691586 1.36245638 0.23767754 0.31027671
 0.92711308 0.07000743 0.66518527 0.02699016 0.13094884 0.27237383
 0.45803012 0.96814476]
[1.4654673  0.25769588 1.95756071 1.83843585 0.9518328  0.96477426
 0.23343489 1.85168901 0.31691586 0.36245638 1.23767754 0.31027671
 0.92711308 0.07000743 0.66518527 0.02699016 0.13094884 0.27237383
 0.45803012 0.96814476]
[1.4654673  0.25769588 1.95756071 1.83843585 0.9518328  0.96477426
 0.23343489 1.85168901 0.31691586 0.36245638 0.23767754 1.31027671
 0.92711308 0.07000743 0.66518527 0.02699016 0.13094884 0.27237383
 0.45803012 0.96814476]
[1.4654673  0.25769588 1.95756071 1.83843585 0.9518328  0.96477426
 0.23343489 1.85168901 0.31691586 0.36245638 0.23767754 1.31027671
 1.92711308 0.07000743 0.66518527 0.02699016 0.13094884 0.27237383
 0.45803012 0.96814476]
[1.4654673  0.25769588 1.95756071 1.83843585 0.9518328  0.96477426
 0.23343489 1.85168901 0.31691586 0.36245638 0.23767754 1.31027671
 0.92711308 1.07000743 0.66518527 0.02699016 0.13094884 0.27237383
 0.45803012 0.96814476]
[1.4654673  0.25769588 1.95756071 1.83843585 0.9518328  0.96477426
 0.23343489 1.85168901 0.31691586 0.36245638 0.23767754 1.31027671
 0.92711308 0.07000743 1.66518527 0.02699016 0.13094884 0.27237383
 0.45803012 0.96814476]
[1.4654673  0.25769588 1.95756071 1.83843585 0.9518328  0.96477426
 0.23343489 1.85168901 0.31691586 0.36245638 0.23767754 1.31027671
 0.92711308 0.07000743 0.66518527 1.02699016 0.13094884 0.27237383
 0.45803012 0.96814476]
[1.4654673  0.25769588 1.95756071 1.83843585 0.9518328  0.96477426
 0.23343489 1.85168901 0.31691586 0.36245638 0.23767754 1.31027671
 0.92711308 0.07000743 0.66518527 0.02699016 1.13094884 0.27237383
 0.45803012 0.96814476]
[1.4654673  0.25769588 1.95756071 1.83843585 0.9518328  0.96477426
 0.23343489 1.85168901 0.31691586 0.36245638 0.23767754 1.31027671
 0.92711308 0.07000743 0.66518527 0.02699016 0.13094884 1.27237383
 0.45803012 0.96814476]
[1.4654673  0.25769588 1.95756071 1.83843585 0.9518328  0.96477426
 0.23343489 1.85168901 0.31691586 0.36245638 0.23767754 1.31027671
 0.92711308 0.07000743 0.66518527 0.02699016 0.13094884 0.27237383
 1.45803012 0.96814476]
[1.4654673  0.25769588 1.95756071 1.83843585 0.9518328  0.96477426
 0.23343489 1.85168901 0.31691586 0.36245638 0.23767754 1.31027671
 0.92711308 0.07000743 0.66518527 0.02699016 0.13094884 0.27237383
 0.45803012 1.96814476]
[ 1.62520486 -0.23706268  2.0056215   1.94207467  0.8994894   0.85377159
  0.08881037  1.88849648  0.21198728  0.2965272  -0.12454415  1.46716516
  0.47693797 -0.10182655  0.58831134 -0.2308401   0.10165211  0.21928037
  0.43189113  0.52181718]
[ 1.75118473  0.49112631  2.0435255   2.02381127  0.85820783  0.76622735
 -0.02525034  1.91752535  0.12923347  0.24453098 -0.41021675  1.59089803
  0.12189933 -0.23734648  0.52768334 -0.43418254  0.07854673  0.17740726
  0.41127614  0.16981297]
[ 1.60712715  0.49112631  2.52232339  2.02381127  0.85820783  0.76622735
 -0.02525034  1.91752535  0.12923347  0.24453098 -0.41021675  1.59089803
  0.12189933 -0.23734648  0.52768334 -0.43418254  0.07854673  0.17740726
  0.41127614  0.16981297]
[ 0.65890971  0.4352068   2.35227024  2.055694    0.84210527  0.73207926
 -0.06974162  1.92884854  0.09695397  0.22424898 -0.52164812  1.6391621
 -0.01658942 -0.29020829  0.50403437 -0.51349965  0.06953409  0.16107396
  0.40323492  0.03250784]
[ 0.65890971  0.4352068   2.35227024  2.055694    0.84210527  0.33544018
  0.23468807  1.92884854  0.09695397  0.22424898 -0.52164812  1.6391621
 -0.01658942 -0.29020829  0.50403437 -0.51349965  0.06953409  0.16107396
  0.40323492  0.03250784]
[ 0.63695889  0.37216637  2.47558111  2.09163674  0.82395217  1.410689
  0.59081721  1.94161366  0.06056392  0.20138423 -0.64726941  1.69357223
 -0.17271364 -0.34980164  0.4773739  -0.60291718  0.05937375  0.14266073
  0.39416971 -0.12228202]
[ 0.65890971  0.4352068   2.35227024  1.57498356  0.84210527  0.73207926
 -0.06974162  1.92884854  0.09695397  0.22424898 -0.65918892  1.6391621
 -0.01658942 -0.29020829  0.50403437 -0.51349965  0.06953409  0.16107396
  0.40323492  0.03250784]
[ 0.62654929  0.3422711   2.53405808  2.12504841  0.81534353  0.61153957
 -0.55642317  1.94766718  0.04330689  0.19054122  0.22449143  1.71937481
 -0.24675148 -0.37806224  0.46473086 -0.64532112  0.05455548  0.13392874
  0.38987077 -0.19568708]
[ 0.62654929  0.3422711   2.53405808  2.12504841  0.31868952  0.61153957
 -0.55642317  1.94766718  0.04330689  0.19054122  0.22449143  1.71937481
 -0.18900381 -0.37806224  0.46473086 -0.64532112  0.05455548  0.13392874
  0.38987077 -0.19568708]
[ 0.59614664  0.2549579   2.70484795  2.47123529  1.13671224  0.49829241
 -1.01366101  1.96534731 -0.00709459  0.15887274 -0.05671458  1.79473474
  0.35172461 -0.46060111  0.42780517 -0.76916752  0.04048307  0.10842578
  0.37731515 -0.41007645]
[ 0.62654929  0.3422711   2.53405808  2.12504841  0.81534353  0.61153957
 -0.55642317  1.94766718 -0.44342348  0.19054122  0.22449143  1.71937481
 -0.24675148 -0.37806224  0.46473086 -0.64532112  0.05455548  0.13392874
  0.38987077 -0.08126007]
[ 0.60661627  0.28502558  2.64603377  2.35202039  0.92438417  0.53729086
 -0.85620397  1.95925888 -0.41017033  0.16977828  0.04012313  1.76878337
 -0.72868578 -0.43217755  0.44052112 -0.72651907  0.04532913  0.11720813
  0.38163887  0.65636761]
[ 0.62654929  0.3422711   2.53405808  2.12504841  0.81534353  0.61153957
 -0.55642317  1.94766718 -0.44342348 -0.29387249  0.22449143  1.71937481
 -0.24675148 -0.37806224  0.46473086 -0.5214528   0.05455548  0.13392874
  0.38987077 -0.08126007]
[ 0.61871921  0.31978394  2.57804432  2.21420743  0.85817682  0.58237323
 -0.67418292  1.95222063 -0.55716336  0.49509633  0.15206796  1.73878346
 -0.43606468 -0.39931979  0.4552208   0.22812396  0.05093119  0.12736056
  0.38663712 -0.33087609]
[ 0.62654929  0.3422711   2.53405808  2.12504841  0.81534353  0.61153957
 -0.55642317  2.4365766  -0.44342348  0.19054122  0.22449143  1.71937481
 -0.24675148 -0.27333604  0.46473086 -0.64532112  0.05455548  0.13392874
  0.38987077 -0.08126007]
[ 0.62203862  0.32931694  2.55939719  2.17641016  0.84001847  0.59473775
 -0.62426091  1.70884566 -0.5089455   0.20572236  0.18277052  1.73055553
 -0.35580895  0.55987085  0.45925241 -0.76890188  0.05246764  0.13014502
  0.38800797 -0.22505612]
[ 0.62654929  0.3422711   2.53405808  2.12504841  0.81534353  0.61153957
 -0.55642317  1.94766718 -0.44342348  0.19054122  0.22449143  1.49937043
 -0.24675148 -0.37806224  0.01573412 -0.64532112  0.05455548  0.13392874
  0.38987077 -0.08126007]
[ 0.62228298  0.33001871  2.55802449  2.17362773  0.83868174  0.59564796
 -0.62058592  1.92595916 -0.50539596  0.20489995  0.18503068  0.85682887
 -0.34990094 -0.4441252   0.9060229  -0.7622071   0.05258074  0.13034999
  0.38810888 -0.21726622]
[ 0.62654929  0.3422711   2.53405808  2.12504841  0.81534353  0.61153957
 -0.55642317  1.94766718 -0.44342348  0.19054122  0.22449143  1.71937481
 -0.24675148 -0.37806224  0.46473086 -0.64532112 -0.38322017  0.37549131
  0.38987077 -0.08126007]
[ 0.62511976  0.33816563  2.54208863  2.14132613  0.82316359  0.60621469
 -0.57792252  1.94039336 -0.46418892  0.19535247  0.21126911  1.74130151
 -0.2813143  -0.40019829  0.46023689 -0.68448671  0.54433726  1.00153173
  0.38928041 -0.12683235]
[ 0.63353487  0.32063452  2.53615986  2.1295807   0.81305447  0.60668525
 -0.56274783  1.94927683 -0.44801218  0.18765803  0.2086509   1.7262358
 -0.26643835 -0.38557681  0.46136904 -0.65659644  0.05327429  0.13160688
  0.88795596 -0.10077868]
[ 0.39596737  0.99921036  2.52144251  2.09087073  0.94022166  0.72938472
 -0.50057369  1.84794707 -0.4375684   0.31402951  0.63690775  1.64942559
  0.14417737 -0.28884095  0.5409344  -0.55137371  0.08894293  0.06199307
  0.43639637  0.23048616]
[ 0.52173636  0.32616112  2.50252265  2.38503289  0.81133613  0.99619977
 -0.43577292  1.95048515 -0.4514568   0.18549369  0.15807107  1.73138616
 -0.28121679 -0.39121781  0.45884541 -0.66506055  0.05231253  0.12986392
  0.38786958 -0.11543082]
[ 0.87742354  0.07552843  2.74734001  1.80520604  0.99558728  0.48244885
 -0.23672304  1.79201436 -0.67563667  0.33550421  0.44876894  1.91801223
 -0.35492067 -0.56501179  0.46919385 -1.02276164  0.06923564 -0.16540519
  0.27156991 -0.37262943]
[ 0.74029179  0.47939671  2.11983715  2.16041928  0.82878517  0.55784446
 -0.65644575  1.93483887 -0.48580158  0.19788683  0.18917093  1.76538602
 -0.32483856 -0.42488133  0.45407506 -0.72689258  0.0520105   0.09124764
  0.372253   -0.18018514]
[ 0.8132569   0.26827321  2.50188181  2.15023922  0.82391723  0.66492937
 -0.55052098  1.94163822 -0.42623648  0.20134023  0.27734989  1.69367694
 -0.1730141  -0.34991633  0.47732259 -0.60308926  0.0593542   0.1426253
  0.39415227 -0.0081529 ]
[ 0.32150534  0.04205775  2.34711926  2.05494039  0.83958647  0.55820682
 -0.55162226  1.928445   -0.43947872  0.21490259  0.31911102  1.70229962
 -0.16301353 -0.35705752  0.48075575 -0.62109664  0.06163905  0.12224485
  0.38630537 -0.01208999]
[ 0.62397283  0.33487177  2.5485316   1.98916879  0.81321283  0.75019375
 -0.7089579   1.94916548 -0.44769474  0.18785748  0.24343955  1.72576116
 -0.26507644 -0.38505696  0.46160161 -0.65581643  0.05336292  0.1317675
  0.38880675 -0.09942841]
[ 0.60852837  0.40233917  2.52726481  1.94364579  0.84336257  0.59395411
 -0.3529318   1.92541762 -0.43954829  0.21860257 -0.16542257  1.70049148
 -0.15188153 -0.35468315  0.48295189 -0.61878155  0.06264305  0.1198693
  0.38550995 -0.00342296]
[ 0.57436198  0.33251618  2.69185892  2.35242339  0.86664106  0.46092205
 -0.73263888  1.93700356 -0.487648    0.19486575  0.08986371  1.76909728
  0.01134775 -0.42914197  0.45160531 -0.73266536  0.05098624  0.09147672
  0.37217981 -0.19249446]
[ 0.61972864  0.35121665  2.62970526  2.12347976  0.82591951  0.53232613
 -0.41064965  1.93243489 -0.47606375  0.20276401  0.2898415   1.75146013
 -0.34240712 -0.40975946  0.4604642  -0.70378912  0.05439002  0.09695097
  0.37493682 -0.14173593]
[ 0.62681834  0.34304377  2.53254669  2.12198486  0.81607016  0.61254174
 -0.55237689  1.97146438 -0.44227627  0.20320998  0.22697994  1.71870792
 -0.2405022  -0.48915835  0.46505763 -0.5957772   0.05468001  0.13415443
  0.38998188 -0.07638024]
[ 0.60450275  0.3591318   2.55170134  2.16770132  0.81396545  0.57570647
 -0.58185753  1.91884682 -0.46261475  0.24557021  0.20024663  1.71782353
 -0.31278982 -0.27336782  0.46881708 -0.460975    0.05653684  0.12686946
  0.38734512 -0.14013842]
[ 0.62524879  0.33853619  2.54136379  2.1398569   0.8118312   0.60669532
 -0.57598197  1.9481139  -0.43047013  0.18988344  0.21246257  1.71782834
 -0.27695905 -0.38014771  0.46548862 -0.64789349  0.00471477  0.04360411
  0.38933369 -0.02616128]
[ 0.59960523  0.36074854  2.55844057  2.18270931  0.81211499  0.56651734
 -0.59563581  1.93848911 -0.41717463  0.18532533  0.19009027  1.72602029
 -0.33930303 -0.37090582  0.46545131 -0.70261093  0.12941864  0.25686761
  0.38660938  0.05759768]
[ 0.61879194  0.36726565  2.53076477  2.11806455  0.81837637  0.61764662
 -0.54681526  1.94536448 -0.43694687  0.19484223  0.24394882  1.81956625
 -0.22066782 -0.36731217  0.41563796 -0.62850108  0.05398219  0.13288979
  0.39298474 -0.05371092]
[ 0.56222376  0.50032507  2.5320114   2.12519291  0.83093023  0.61422913
 -0.5271887   1.93499464 -0.43936229  0.19487438  0.31289995  1.61519991
 -0.1604239  -0.34519331  0.5187051  -0.65555229  0.05168013  0.11933784
  0.40547395 -0.0439445 ]
[ 0.6230084   0.34481542  2.52663546  2.1282041   0.69291815  0.61023951
 -0.56374175  1.9473039  -0.44250871  0.19143481  0.21731695  1.71759326
 -0.22665966 -0.37636626  0.46560381 -0.64182653  0.05578529  0.13615747
  0.39024723 -0.07736896]
[ 0.64289577  0.31384595  2.60572576  2.10460973  0.89127923  0.56362018
 -0.43209268  1.93116746 -0.47761424  0.17971872  0.27392784  1.70647426
 -0.32016204 -0.36568579  0.47825547 -0.754472    0.04914606  0.1010603
  0.37619921 -0.17741543]
[ 0.55652683  0.26689528  2.4843486   2.11559609  0.83984532  0.59451772
 -0.5510963   1.94265396 -0.44182808  0.19337845  0.24058138  1.70680532
 -0.22095938 -0.36470994  0.47200976 -0.64461542  0.05618624  0.13329807
  0.38954952 -0.0668121 ]
[ 0.62654929  0.3422711   2.53405808  2.12504841  0.81534353  0.61153957
 -0.55642317  1.90855692 -0.39667249  0.19054122  0.22449143  1.71937481
 -0.24675148 -0.3864398   0.46473086 -0.64532112  0.05455548  0.13392874
  0.38987077 -0.09225091]
[ 0.62950476  0.34969871  2.5349764   2.12818877  0.82333016  0.60724828
 -0.55566871  2.0455123  -0.37399238  0.19051765  0.21807774  1.71707321
 -0.24816788 -0.35471625  0.46637767 -0.65022843  0.05553394  0.13404003
  0.38921299 -0.10251105]
[ 0.62654929  0.3422711   2.53405808  2.12504841  0.81534353  0.61153957
 -0.55642317  1.94766718 -0.44342348  0.19054122  0.22449143  1.69559109
 -0.24675148 -0.37806224  0.41619177 -0.64532112  0.082028    0.11876953
  0.38987077 -0.08126007]
[ 0.62860518  0.34743791  2.53469689  2.12723291  0.82089921  0.60855445
 -0.55589835  1.94740142 -0.45177893  0.19052482  0.22002993  1.69459411
 -0.24773676 -0.37645857  0.41857013 -0.64873475 -0.04390875  0.18871384
  0.38941321 -0.08272393]
[ 0.62032218  0.33475382  2.56630509  2.10200829  0.81697297  0.61949958
 -0.53434794  1.94655935 -0.43937723  0.19299921  0.19361259  1.7135201
 -0.23055874 -0.37169     0.46746588 -0.63570862  0.05558074  0.13621504
  0.39084833 -0.06496379]
[ 0.65366868  0.38444209  2.46815063  2.11089302  0.83812287  0.60498615
 -0.54812426  1.94169285 -0.47442315  0.18873606  0.15419841  1.73473502
 -0.24794294 -0.3770309   0.50153549 -0.6624341   0.05264088  0.1282162
  0.38773044 -0.08953582]
[ 0.62674862  0.34044323  2.54120361  2.13411817  0.81784503  0.60886668
 -0.56734506  1.94710633 -0.44534367  0.24609996  0.21917995  1.72147241
 -0.2338711  -0.38020029  0.46423301 -0.66316191  0.05443332  0.13201048
  0.38951292 -0.0858024 ]
[ 0.62709     0.33950762  2.58145521  2.17637701  0.83684441  0.59208874
 -0.60618216  1.94604092 -0.46905959  0.14336847  0.20832705  1.73599285
 -0.19452185 -0.38333665  0.48848778 -0.6555427   0.05176253  0.12968615
  0.38742292 -0.10450641]
[ 0.62163216  0.34132343  2.57981309  2.18735971  0.83693453  0.6096895
 -0.60010027  1.94597754 -0.46887892  0.14348199  0.20723752  1.73572272
 -0.19374675 -0.38304079  0.48862014 -0.65509878  0.05181297  0.12977756
  0.32911125 -0.10373793]
[ 0.60368153  0.33608413  2.5781764   2.23771625  0.83877091  0.67742268
 -0.57674571  1.9473115  -0.47701232  0.14255518  0.19569644  1.74149202
 -0.20967991 -0.38498927  0.49632168 -0.66257482  0.05034183  0.13059203
  0.43687608 -0.11414515]
[ 0.59038389  0.35273205  2.58998577  2.15012503  0.83484259  0.60349847
 -0.63130131  1.94744858 -0.47307247  0.14084708  0.20102768  1.74199289
 -0.21173833 -0.38990826  0.48554781 -0.66540315  0.0506421   0.12765564
  0.38642326 -0.12157574]
[ 0.69539816  0.32335587  2.59369725  2.13271627  0.85285534  0.61863579
 -0.64831302  1.94641474 -0.48931409  0.14917949  0.2540041   1.73795581
 -0.19740169 -0.36612145  0.53417722 -0.64988357  0.04965102  0.14128186
  0.40656019 -0.08347972]
[ 0.62780321  0.33938666  2.58032217  2.17389393  0.83719693  0.593493
 -0.60373859  1.94246157 -0.47694009  0.15362453  0.21006262  1.73464989
 -0.19002397 -0.36581895  0.48905583 -0.61459936  0.04045355  0.10947942
  0.38753946 -0.13864281]
[ 0.61307815  0.35866431  2.6045693   2.21167048  0.8437807   0.53424289
 -0.61060252  1.93979821 -0.48046951  0.16087149  0.20141299  1.74260892
 -0.25505401 -0.36232972  0.51552777 -0.61759066  0.07229173  0.1692032
  0.39656592 -0.0735658 ]
[ 0.64364313  0.29906673  2.58542916  2.17551225  0.8314143   0.58873969
 -0.60725045  1.94774636 -0.47207812  0.14140471  0.18866357  1.75847916
 -0.21897518 -0.38828596  0.47713403 -0.66010858  0.0526532   0.13237502
  0.38285183 -0.11964236]
[ 0.6273945   0.3619845   2.60858675  2.16215018  0.83758231  0.55397563
 -0.53716391  1.94719078 -0.49260371  0.1381321   0.25705139  1.73903821
 -0.19069413 -0.39629488  0.51590666 -0.70496802  0.03598466  0.1033676
  0.39669501 -0.12886407]
[ 0.59600367  0.30528231  2.55279061  2.1726574   0.84436763  0.58502114
 -0.6037556   1.94905625 -0.47845494  0.13619898  0.22629913  1.73445917
 -0.19010929 -0.37521927  0.50270542 -0.65346359  0.05264432  0.13380906
  0.387365   -0.09843472]
[ 0.62912397  0.36041163  2.58250033  2.1684415   0.85426543  0.56426442
 -0.62350596  1.93794405 -0.43748592  0.17449078  0.17052099  1.72302758
 -0.10932548 -0.39369184  0.48850182 -0.6649524   0.032842    0.11482791
  0.41924385 -0.07182534]
[ 0.63519965  0.34779636  2.57579552  2.17605216  0.84687881  0.58845312
 -0.61009994  1.94583335 -0.48661298  0.13379243  0.21771671  1.70737256
 -0.19417491 -0.3776945   0.45349945 -0.65924556  0.08089097  0.11852448
  0.39460855 -0.10155604]
[ 0.62603726  0.33838099  2.58110257  2.17612185  0.81887566  0.59271349
 -0.60736467  1.92639145 -0.48319679  0.14451352  0.20723177  1.7361161
 -0.19065683 -0.38761341  0.4884107  -0.65447723  0.05097415  0.12994469
  0.38758961 -0.09943129]
[ 0.63229249  0.34893703  2.57287668  2.17872137  0.79385695  0.58758282
 -0.61173655  1.98032834 -0.45643071  0.13483794  0.21251631  1.72919588
 -0.18802116 -0.37049499  0.49512298 -0.65771032  0.05750646  0.13246634
  0.39243418 -0.10883606]
[ 0.62733248  0.34028682  2.5819167   2.17729103  0.83763117  0.59143838
 -0.60685528  1.94079748 -0.46975181  0.14108593  0.2070853   1.73260129
 -0.19571772 -0.36221211  0.48088622 -0.66540062  0.03592806  0.13820132
  0.38734032 -0.10562086]
[ 0.63129511  0.34476539  2.57479036  2.1765449   0.84014737  0.5898353
 -0.60608096  1.96230565 -0.47825937  0.13887211  0.21726376  1.72148182
 -0.19688054 -0.41754439  0.47469605 -0.64000541  0.02012453  0.15260504
  0.39007305 -0.1046871 ]
[ 0.62652536  0.33930211  2.58047184  2.18011335  0.83498796  0.59116787
 -0.61069307  1.94953252 -0.46875164  0.14000573  0.21027379  1.73810372
 -0.2040772  -0.38310235  0.48604968 -0.65462995  0.03989844  0.10830135
  0.38741607 -0.09006382]
[ 0.62481577  0.35419867  2.57428915  2.1759394   0.83739922  0.59359727
 -0.60557483  1.95498273 -0.47139094  0.1368742   0.22706969  1.7856733
 -0.1916462  -0.37772044  0.4629778  -0.64497502  0.04510713  0.11466274
  0.39080405 -0.07965637]
[ 0.6197236   0.32859642  2.60007467  2.183847    0.83047439  0.59257643
 -0.61325221  1.94891382 -0.45971944  0.14468601  0.22375223  1.73465126
 -0.2002177  -0.38361035  0.47808437 -0.65181498  0.04034602  0.10953225
  0.3878995  -0.08843874]
[ 0.63360043  0.34924516  2.56220449  2.18068289  0.83721386  0.5882764
 -0.61339135  1.92132282 -0.42781017  0.12211317  0.22643601  1.73685762
 -0.21504314 -0.39297597  0.48911345 -0.65111737  0.04249004  0.10472596
  0.39222547 -0.09817009]
[ 0.626196    0.33875235  2.59043156  2.18692573  0.83889624  0.5883313
 -0.61673649  1.94927622 -0.47332611  0.1152696   0.20641663  1.74063653
 -0.1956638  -0.38322605  0.49130992 -0.65132968  0.03941292  0.10807864
  0.3870634  -0.09266599]
[ 0.62332053  0.33732148  2.59065784  2.14707113  0.83205722  0.60182458
 -0.57883105  1.95071703 -0.45876769  0.12376333  0.19456542  1.72850835
 -0.20868883 -0.37676861  0.48501632 -0.63621234  0.04231445  0.110571
  0.390613   -0.06926525]
[ 0.64147468  0.33868563  2.58559217  2.17110291  0.84362128  0.60212503
 -0.61915761  1.95145079 -0.46998073  0.14323684  0.21975049  1.73958453
 -0.2032291  -0.38201083  0.50032389 -0.6544017   0.04499592  0.1129381
  0.38935442 -0.08626061]
[ 0.61347966  0.34644208  2.56529451  2.19032547  0.81517535  0.57749428
 -0.62193244  1.95085083 -0.48778001  0.13632274  0.21305255  1.72846077
 -0.20938148 -0.3755515   0.46976036 -0.65688398  0.01043326  0.07859491
  0.38775748 -0.08230731]
[ 0.62273741  0.34217214  2.58030352  2.18310234  0.84333975  0.58226617
 -0.61113749  1.95177926 -0.45862975  0.14923226  0.1966529   1.73871755
 -0.18657852 -0.3896064   0.48654647 -0.65728256  0.04151117  0.10296664
  0.39215312 -0.08723542]
[ 0.62481037  0.33760527  2.57689229  2.18558885  0.83456863  0.60025335
 -0.61601123  1.94918656 -0.46713424  0.14024126  0.20531616  1.73714416
 -0.20454123 -0.381394    0.48366606 -0.65003501  0.04061065  0.11083418
  0.39060015 -0.08702381]
[ 0.62189989  0.34451791  2.58428895  2.19205406  0.83653467  0.59967866
 -0.59244456  1.95210358 -0.47266719  0.13901254  0.21521993  1.73988769
 -0.20844399 -0.38715967  0.49133909 -0.66349302  0.04070588  0.10358909
  0.3972539  -0.09718421]
[ 0.62223746  0.34684385  2.58266966  2.18392791  0.83661856  0.58601162
 -0.61116958  1.94871534 -0.46956319  0.14229923  0.21182271  1.73612015
 -0.20772718 -0.38025457  0.49051513 -0.64968527  0.04218455  0.11213009
  0.38731157 -0.08543959]
[ 0.63428143  0.32712321  2.58330431  2.18082598  0.83337943  0.57517729
 -0.61218861  1.9522992  -0.46901643  0.13993672  0.20259246  1.74703056
 -0.2201529  -0.38518354  0.48102215 -0.65278603  0.04550612  0.11082579
  0.38473667 -0.09408534]
[ 0.63299815  0.34766963  2.58689177  2.18179377  0.83228567  0.59431669
 -0.61125234  1.94840213 -0.46727327  0.14145114  0.20608343  1.7381361
 -0.20537202 -0.38443917  0.48214172 -0.65496595  0.03845151  0.10688019
  0.38260474 -0.09126179]
[ 0.61794798  0.33300345  2.57100798  2.18208444  0.83912351  0.59316299
 -0.60636587  1.95270304 -0.46800366  0.13773624  0.21614863  1.73645064
 -0.19911036 -0.38339659  0.48946199 -0.65504039  0.04403843  0.10819123
  0.36249755 -0.08851514]
[ 0.62465669  0.34016867  2.58089587  2.17968531  0.83340636  0.59123654
 -0.61292244  1.94986036 -0.46795685  0.13697606  0.20970084  1.73820294
 -0.20630167 -0.38699334  0.48489506 -0.66519138  0.04088333  0.11266152
  0.38747954 -0.08176611]
[ 0.60847341  0.34455791  2.58336529  2.16565528  0.83772311  0.59492391
 -0.62136023  1.95190255 -0.46915855  0.14036029  0.20795552  1.74130123
 -0.20981044 -0.38600518  0.48674061 -0.65447733  0.04259231  0.1054041
  0.38841894 -0.1038595 ]
[ 0.62507561  0.3379686   2.58102507  2.18037226  0.83201228  0.59171355
 -0.61006168  1.95036328 -0.46627402  0.1415211   0.20901434  1.74304136
 -0.20456683 -0.38693001  0.49221104 -0.65263138  0.02908736  0.11274346
  0.38608017 -0.0900966 ]
[ 0.62983619  0.34207335  2.57606941  2.17878116  0.84349882  0.58850164
 -0.60955026  1.95818102 -0.47411997  0.13756243  0.21651643  1.72687311
 -0.20291114 -0.39944578  0.47543153 -0.64634495  0.03554326  0.11788043
  0.39065852 -0.09324806]
[ 0.62728287  0.3416066   2.57826635  2.18056179  0.82551648  0.58979752
 -0.6111122   1.95870224 -0.46481207  0.13825222  0.2109432   1.73658287
 -0.20179774 -0.38185401  0.48798351 -0.65434761  0.04367464  0.10996744
  0.38854912 -0.09272757]
[ 0.63792013  0.33278564  2.5802012   2.17150887  0.8454339   0.59182918
 -0.61665327  1.94391928 -0.47609875  0.14428429  0.22167982  1.73763081
 -0.19887971 -0.37444395  0.49680368 -0.65162931  0.03883198  0.10098903
  0.39442081 -0.08552022]
[ 0.62409559  0.33792203  2.58186594  2.17284494  0.83415827  0.59144979
 -0.6019934   1.94792738 -0.46719837  0.13603026  0.20618758  1.73546043
 -0.20452647 -0.3804829   0.48407703 -0.64983646  0.03911986  0.10702015
  0.38878893 -0.08531359]
[ 0.62513813  0.33849811  2.58190451  2.18050294  0.83381551  0.59088645
 -0.61088427  1.95262629 -0.47418841  0.14180623  0.20862315  1.73782636
 -0.2029808  -0.38160246  0.48494035 -0.65513616  0.03832356  0.10756271
  0.3869004  -0.08889502]
[ 0.62423961  0.34077069  2.57455519  2.18367328  0.83241846  0.58610513
 -0.61272913  1.94181678 -0.46600776  0.13749183  0.214036    1.73691236
 -0.20456221 -0.38223107  0.48217239 -0.65504417  0.03538706  0.1039197
  0.38880995 -0.0925238 ]
[ 0.62680365  0.33769262  2.58126778  2.18055245  0.83558213  0.59084249
 -0.61113771  1.94922097 -0.4679156   0.14025926  0.20822224  1.73227872
 -0.20545265 -0.38197605  0.48823174 -0.65655605  0.03853574  0.10889028
  0.38701159 -0.09203496]
[ 0.6269939   0.34115173  2.57996078  2.17954162  0.8403031   0.59100542
 -0.6089037   1.95062369 -0.46594102  0.13945858  0.2117428   1.74294853
 -0.20183908 -0.37477098  0.48148281 -0.6571736   0.03820895  0.11596677
  0.38794063 -0.09319073]
[ 0.62665958  0.33871096  2.58022474  2.17900222  0.83068552  0.5914117
 -0.6090139   1.94097448 -0.47279602  0.14183157  0.20986079  1.739968
 -0.19910138 -0.38647632  0.48717984 -0.65351258  0.04571927  0.11486446
  0.38781139 -0.09301839]
[ 0.62802307  0.33691681  2.58039289  2.18113516  0.83632977  0.58901103
 -0.61071579  1.95019666 -0.46753061  0.13984238  0.20997515  1.74217805
 -0.20762319 -0.38481065  0.48535149 -0.65283352  0.04251535  0.10735894
  0.38745905 -0.08998747]
[ 0.62722147  0.34067432  2.57812107  2.1797616   0.83579129  0.59071959
 -0.61040212  1.94967692 -0.469518    0.13972697  0.20823153  1.73853725
 -0.20398922 -0.3832452   0.48702092 -0.65504929  0.03989518  0.10798678
  0.38750639 -0.09017066]
[ 0.62489888  0.33955606  2.58188435  2.18097336  0.83697833  0.58998983
 -0.61075506  1.94988401 -0.46544184  0.14232108  0.20928702  1.73824909
 -0.19920216 -0.3849158   0.48583012 -0.65482671  0.04040502  0.10659687
  0.38858971 -0.08900441]
[ 0.62517986  0.33900039  2.57959869  2.18095774  0.83526194  0.59158618
 -0.60978681  1.94979763 -0.46846178  0.13969629  0.21028526  1.7379398
 -0.2038232  -0.38339503  0.4857728  -0.6545908   0.04041407  0.10835879
  0.38425237 -0.0902284 ]
[ 0.62794514  0.34022357  2.58036627  2.17820639  0.83585269  0.59436699
 -0.61194036  1.94910658 -0.46864211  0.13951108  0.21557682  1.73859926
 -0.20274497 -0.3827138   0.48802242 -0.65360874  0.03988492  0.10682839
  0.38700945 -0.08806795]
[ 0.62865359  0.33836352  2.58010544  2.1816311   0.83435082  0.59061315
 -0.60939515  1.94864437 -0.46916932  0.14026989  0.21050487  1.73779101
 -0.20288867 -0.38288585  0.4863069  -0.65452593  0.04009545  0.10920839
  0.38726947 -0.08887694]
[ 0.62437413  0.33960869  2.58140566  2.17803197  0.83307545  0.59189182
 -0.61125471  1.94585636 -0.47033283  0.14079762  0.21025201  1.73924758
 -0.20273803 -0.3850041   0.48612443 -0.65408031  0.0426814   0.11097746
  0.38806537 -0.09282352]
[ 0.62658792  0.33938775  2.57920666  2.17925146  0.83454077  0.59150668
 -0.60994313  1.94960831 -0.46820462  0.14308247  0.21078241  1.73772871
 -0.20512191 -0.38317393  0.48533331 -0.65499835  0.03993298  0.10838476
  0.38746975 -0.089748  ]
[ 0.62717535  0.34029388  2.57974013  2.17992943  0.83700215  0.59067521
 -0.61045692  1.95150747 -0.46986697  0.13879197  0.21185469  1.73558887
 -0.20386651 -0.38735644  0.48317553 -0.65251228  0.03862765  0.11063922
  0.38836711 -0.09068928]
1648080760.7502248
SPSA120-ZFeature4-RealAmplitudes2
1648080761.1020958
[ 0.72615304  0.24108318  0.52335392 -0.06885885  0.1314747   0.15596024
  0.05526786  1.0053493   0.68607235  0.80293688  0.13690579  0.76563414]
[ 0.32615304 -0.15891682  0.92335392  0.33114115  0.5314747   0.55596024
  0.45526786  0.6053493   0.28607235  0.40293688  0.53690579  0.36563414]
[0.32615304 0.24108318 0.92335392 0.33114115 0.5314747  0.15596024
 0.05526786 0.6053493  0.68607235 0.80293688 0.13690579 0.36563414]
[ 0.72615304 -0.15891682  0.52335392 -0.06885885  0.1314747   0.55596024
  0.45526786  1.0053493   0.28607235  0.40293688  0.53690579  0.76563414]
[0.32615304 0.24108318 0.52335392 0.33114115 0.1314747  0.15596024
 0.45526786 0.6053493  0.28607235 0.80293688 0.53690579 0.76563414]
[ 0.72615304 -0.15891682  0.92335392 -0.06885885  0.5314747   0.55596024
  0.05526786  1.0053493   0.68607235  0.40293688  0.13690579  0.36563414]
[ 0.72615304  0.24108318  0.92335392 -0.06885885  0.1314747   0.15596024
  0.45526786  1.0053493   0.68607235  0.80293688  0.13690579  0.76563414]
[ 0.32615304 -0.15891682  0.52335392  0.33114115  0.5314747   0.55596024
  0.05526786  0.6053493   0.28607235  0.40293688  0.53690579  0.36563414]
[ 0.72615304 -0.15891682  0.52335392 -0.06885885  0.1314747   0.15596024
  0.05526786  0.6053493   0.28607235  0.80293688  0.53690579  0.76563414]
[0.32615304 0.24108318 0.92335392 0.33114115 0.5314747  0.55596024
 0.45526786 1.0053493  0.68607235 0.40293688 0.13690579 0.36563414]
[0.32615304 0.24108318 0.92335392 0.33114115 0.1314747  0.15596024
 0.45526786 1.0053493  0.28607235 0.40293688 0.53690579 0.76563414]
[ 0.72615304 -0.15891682  0.52335392 -0.06885885  0.5314747   0.55596024
  0.05526786  0.6053493   0.68607235  0.80293688  0.13690579  0.36563414]
[ 0.72615304 -0.15891682  0.52335392 -0.06885885  0.5314747   0.55596024
  0.45526786  0.6053493   0.28607235  0.80293688  0.13690579  0.36563414]
[0.32615304 0.24108318 0.92335392 0.33114115 0.1314747  0.15596024
 0.05526786 1.0053493  0.68607235 0.40293688 0.53690579 0.76563414]
[ 0.32615304  0.24108318  0.92335392 -0.06885885  0.5314747   0.55596024
  0.05526786  0.6053493   0.28607235  0.80293688  0.13690579  0.76563414]
[ 0.72615304 -0.15891682  0.52335392  0.33114115  0.1314747   0.15596024
  0.45526786  1.0053493   0.68607235  0.40293688  0.53690579  0.36563414]
[ 0.72615304 -0.15891682  0.52335392 -0.06885885  0.5314747   0.15596024
  0.05526786  0.6053493   0.28607235  0.40293688  0.13690579  0.76563414]
[0.32615304 0.24108318 0.92335392 0.33114115 0.1314747  0.55596024
 0.45526786 1.0053493  0.68607235 0.80293688 0.53690579 0.36563414]
[ 0.32615304 -0.15891682  0.92335392  0.33114115  0.5314747   0.55596024
  0.45526786  0.6053493   0.68607235  0.40293688  0.53690579  0.36563414]
[ 0.72615304  0.24108318  0.52335392 -0.06885885  0.1314747   0.15596024
  0.05526786  1.0053493   0.28607235  0.80293688  0.13690579  0.76563414]
[ 0.32615304  0.24108318  0.92335392 -0.06885885  0.1314747   0.55596024
  0.05526786  1.0053493   0.28607235  0.40293688  0.13690579  0.76563414]
[ 0.72615304 -0.15891682  0.52335392  0.33114115  0.5314747   0.15596024
  0.45526786  0.6053493   0.68607235  0.80293688  0.53690579  0.36563414]
[ 0.32615304  0.24108318  0.52335392 -0.06885885  0.5314747   0.15596024
  0.05526786  0.6053493   0.68607235  0.40293688  0.13690579  0.36563414]
[ 0.72615304 -0.15891682  0.92335392  0.33114115  0.1314747   0.55596024
  0.45526786  1.0053493   0.28607235  0.80293688  0.53690579  0.76563414]
[ 0.72615304 -0.15891682  0.52335392 -0.06885885  0.5314747   0.55596024
  0.05526786  0.6053493   0.28607235  0.80293688  0.13690579  0.36563414]
[0.32615304 0.24108318 0.92335392 0.33114115 0.1314747  0.15596024
 0.45526786 1.0053493  0.68607235 0.40293688 0.53690579 0.76563414]
[0.72615304 0.24108318 0.52335392 0.33114115 0.5314747  0.55596024
 0.05526786 0.6053493  0.68607235 0.80293688 0.53690579 0.76563414]
[ 0.32615304 -0.15891682  0.92335392 -0.06885885  0.1314747   0.15596024
  0.45526786  1.0053493   0.28607235  0.40293688  0.13690579  0.36563414]
[0.32615304 0.24108318 0.92335392 0.33114115 0.5314747  0.55596024
 0.45526786 1.0053493  0.28607235 0.40293688 0.13690579 0.36563414]
[ 0.72615304 -0.15891682  0.52335392 -0.06885885  0.1314747   0.15596024
  0.05526786  0.6053493   0.68607235  0.80293688  0.53690579  0.76563414]
[0.32615304 0.24108318 0.52335392 0.33114115 0.5314747  0.55596024
 0.05526786 0.6053493  0.68607235 0.80293688 0.13690579 0.76563414]
[ 0.72615304 -0.15891682  0.92335392 -0.06885885  0.1314747   0.15596024
  0.45526786  1.0053493   0.28607235  0.40293688  0.53690579  0.36563414]
[0.32615304 0.24108318 0.52335392 0.33114115 0.1314747  0.15596024
 0.45526786 0.6053493  0.68607235 0.80293688 0.13690579 0.76563414]
[ 0.72615304 -0.15891682  0.92335392 -0.06885885  0.5314747   0.55596024
  0.05526786  1.0053493   0.28607235  0.40293688  0.53690579  0.36563414]
[0.32615304 0.24108318 0.52335392 0.33114115 0.5314747  0.55596024
 0.45526786 1.0053493  0.28607235 0.40293688 0.13690579 0.36563414]
[ 0.72615304 -0.15891682  0.92335392 -0.06885885  0.1314747   0.15596024
  0.05526786  0.6053493   0.68607235  0.80293688  0.53690579  0.76563414]
[ 0.72615304 -0.15891682  0.52335392 -0.06885885  0.1314747   0.55596024
  0.45526786  1.0053493   0.28607235  0.40293688  0.53690579  0.76563414]
[0.32615304 0.24108318 0.92335392 0.33114115 0.5314747  0.15596024
 0.05526786 0.6053493  0.68607235 0.80293688 0.13690579 0.36563414]
[0.72615304 0.24108318 0.92335392 0.33114115 0.5314747  0.55596024
 0.05526786 0.6053493  0.28607235 0.80293688 0.53690579 0.36563414]
[ 0.32615304 -0.15891682  0.52335392 -0.06885885  0.1314747   0.15596024
  0.45526786  1.0053493   0.68607235  0.40293688  0.13690579  0.76563414]
[ 0.72615304  0.24108318  0.52335392 -0.06885885  0.1314747   0.55596024
  0.05526786  1.0053493   0.68607235  0.80293688  0.53690579  0.36563414]
[ 0.32615304 -0.15891682  0.92335392  0.33114115  0.5314747   0.15596024
  0.45526786  0.6053493   0.28607235  0.40293688  0.13690579  0.76563414]
[ 0.72615304 -0.15891682  0.52335392 -0.06885885  0.1314747   0.55596024
  0.45526786  1.0053493   0.68607235  0.40293688  0.53690579  0.76563414]
[0.32615304 0.24108318 0.92335392 0.33114115 0.5314747  0.15596024
 0.05526786 0.6053493  0.28607235 0.80293688 0.13690579 0.36563414]
[ 0.72615304 -0.15891682  0.92335392  0.33114115  0.5314747   0.15596024
  0.45526786  1.0053493   0.68607235  0.80293688  0.53690579  0.36563414]
[ 0.32615304  0.24108318  0.52335392 -0.06885885  0.1314747   0.55596024
  0.05526786  0.6053493   0.28607235  0.40293688  0.13690579  0.76563414]
[0.72615304 0.24108318 0.92335392 0.33114115 0.5314747  0.15596024
 0.05526786 0.6053493  0.28607235 0.40293688 0.53690579 0.36563414]
[ 0.32615304 -0.15891682  0.52335392 -0.06885885  0.1314747   0.55596024
  0.45526786  1.0053493   0.68607235  0.80293688  0.13690579  0.76563414]
[0.72615304 0.24108318 0.92335392 0.33114115 0.5314747  0.15596024
 0.45526786 1.0053493  0.68607235 0.40293688 0.53690579 0.36563414]
[ 0.32615304 -0.15891682  0.52335392 -0.06885885  0.1314747   0.55596024
  0.05526786  0.6053493   0.28607235  0.80293688  0.13690579  0.76563414]
[0.72615304 0.24108318 0.52335392 0.33114115 0.1314747  0.15596024
 0.05526786 0.6053493  0.28607235 0.80293688 0.53690579 0.76563414]
[ 0.32615304 -0.15891682  0.92335392 -0.06885885  0.5314747   0.55596024
  0.45526786  1.0053493   0.68607235  0.40293688  0.13690579  0.36563414]
[-0.10145766 -0.21357292  1.35096462 -0.49646954  0.9590854   0.98357094
  0.50992396  1.43296     0.74072845 -0.02467382  0.08224968  0.31097804]
[ 0.27149693 -0.58652752  0.97801002 -0.12351495  0.5861308   0.61061635
  0.88287856  1.06000541  1.11368305  0.34828077 -0.29070491 -0.06197656]
[ 1.15872123 -1.47375181  0.09078573  0.40571947 -0.30109349  0.08138193
  1.77010285  0.17278112  2.00090734  0.87751519 -0.81993933 -0.59121098]
[ 0.80073135 -1.11576193  0.4487756   0.76370934  0.05689639 -0.27660795
  1.41211298  0.53077099  1.64291747  1.23550506 -1.1779292  -0.94920085]
[ 0.77324605 -1.43601446  0.47626091  0.79119465 -0.26335614  0.04364458
  1.38462767  0.21051847  1.96316999  0.91525254 -0.85767668 -0.97668615]
[ 1.12098387 -1.08827663  0.12852308  0.44345682  0.08438169 -0.30409325
  1.7323655   0.55825629  1.61543216  1.26299037 -1.20541451 -0.62894833]
[ 0.95817428 -1.25108623  0.29133268  0.60626642 -0.07842791 -0.14128365
  1.22956756  0.3954467   2.1182301   1.10018077 -1.04260491 -0.79175793]
[ 0.61818594 -1.59107457  0.63132102  0.94625476 -0.41841625  0.19870469
  1.5695559   0.05545836  1.77824176  0.76019243 -0.70261657 -1.13174627]
[ 0.49724504 -1.37823054  0.75226191  0.73341073 -0.20557222 -0.01413934
  1.35671188  0.26830238  1.99108579  0.63925153 -0.58167567 -0.91890224]
[ 0.83102996 -1.71201547  0.41847699  1.06719565 -0.53935715  0.31964559
  1.6904968  -0.06548254  1.65730086  0.97303645 -0.91546059 -1.25268716]
[ 2.91909333e-01 -1.50152323e+00  6.28969225e-01  8.56703422e-01
 -2.36515473e-04 -2.19475044e-01  1.48000457e+00  4.73638091e-01
  2.19642149e+00  4.33915824e-01 -7.04968362e-01 -1.04219493e+00]
[ 0.62053773 -1.17289484  0.95759762  0.52807502 -0.32886491  0.10915335
  1.15137617  0.14500969  1.8677931   0.76254422 -0.37633996 -0.71356653]
[ 0.71599704 -1.40166157  0.72883089  0.75684176 -0.10009818  0.20461266
  1.05591686  0.04955038  1.77233378  0.85800353 -0.6051067  -0.94233327]
[ 0.39177099 -1.07743552  1.05305693  0.43261571 -0.42432422 -0.11961338
  1.38014291  0.37377643  2.09655983  0.53377749 -0.28088065 -0.61810722]
[ 0.61336374 -1.61942015  0.51107231  0.97460034 -0.20273148  0.10197936
  0.83815828  0.15218368  1.55457521  0.75537023 -0.82286528 -0.83969997]
[ 0.93375562 -1.29902827  0.83146419  0.65420846  0.1176604   0.42237124
  1.15855016 -0.16820819  1.87496709  1.07576211 -0.5024734  -1.16009185]
[ 0.59240892 -1.32337444  0.80711802  0.67855463  0.09331423  0.08102454
  1.13420399 -0.14386203  1.53362039  1.05141594 -0.8438201  -0.81874515]
[ 0.90940945 -1.64037497  0.49011749  0.99555516 -0.2236863   0.39802507
  0.81720346  0.1731385   1.85062092  0.73441541 -0.52681957 -1.13574568]
[ 0.78546675 -1.20246865  0.92802381  0.87161246 -0.0997436  -0.03988125
  1.25510978 -0.26476782  1.72667822  0.85835811 -0.96472589 -1.01180298]
[ 0.47150313 -1.51643227  0.61406019  0.55764884  0.21422002  0.27408238
  0.94114616  0.04919581  1.4127146   1.17232173 -0.65076226 -0.69783936]
[ 0.91000348 -1.07793192  1.05256054  0.68493264 -0.22428033  0.14679857
  1.06842996 -0.38930455  1.85121495  0.73382138 -1.08926262 -1.13633971]
[ 0.59878693 -1.38914847  0.74134399  0.99614919  0.08693622 -0.16441798
  1.37964651 -0.078088    1.5399984   1.04503793 -0.77804607 -0.82512316]
[ 0.64065961 -1.03856507  1.09192738  0.6455658   0.04506354  0.18616542
  1.33777384 -0.42867139  1.8905818   1.00316525 -0.81991874 -1.17570656]
[ 0.94937033 -1.3472758   0.78321666  0.95427652 -0.26364718 -0.1225453
  1.02906312 -0.11996067  1.58187108  0.69445453 -1.12862946 -0.86699584]
[ 1.07363938 -1.47154485  0.96535629  0.77213689 -0.08150755 -0.24681436
  0.90479406 -0.30210029  1.45760202  0.57018548 -1.25289851 -0.74272678]
[ 0.7672307  -1.16513617  0.65894761  1.07854557 -0.38791623  0.05959432
  1.21120274  0.00430838  1.7640107   0.87659416 -0.94648984 -1.04913546]
[ 0.95065824 -1.34856371  0.84237515  0.89511803 -0.20448869 -0.42811418
  1.0277752  -0.17911916  1.2763022   0.69316662 -1.43419834 -0.86570792]
[ 1.2549392  -1.65284467  1.14665611  0.59083707  0.09979227 -0.12383322
  0.72349424 -0.48340011  1.58058316  0.38888566 -1.12991738 -0.56142696]
[ 1.12695292 -1.52485839  1.32097381  0.71882335  0.27410997 -0.2518195
  0.54917654 -0.65771782  1.75490086  0.21456796 -1.25790366 -0.68941324]
[ 1.42925691 -1.82716237  1.01866983  0.41651937 -0.02819401  0.05048449
  0.85148052 -0.35541383  1.45259688  0.51687194 -0.95559967 -0.38710926]
[ 1.42434693 -1.52179379  1.32403841  0.42142934 -0.02328404 -0.2548841
  0.84657055 -0.66078241  1.45750685  0.21150336 -0.96050965 -0.69247784]
[ 1.12388832 -1.8222524   1.0235798   0.72188795  0.27717457  0.04557451
  0.54611194 -0.36032381  1.75796546  0.51196197 -1.26096826 -0.39201923]
[ 1.20376213 -1.7423786   1.1034536   0.64201415 -0.10142829 -0.03429929
  0.62598574 -0.73892667  1.3793626   0.43208817 -1.18109445 -0.47189304]
[ 1.50249118 -1.44364954  1.40218266  0.34328509  0.19730077 -0.33302835
  0.9247148  -0.44019761  1.67809166  0.13335911 -0.8823654  -0.77062209]
[ 1.15662145 -1.49241707  1.35341513  0.39205262  0.14853323 -0.28426082
  0.87594727 -0.78606735  1.62932413  0.18212664 -1.22823513 -0.72185456]
[ 1.45372365 -1.78951928  1.05631292  0.68915483 -0.14856897  0.01284139
  0.57884506 -0.48896514  1.33222192  0.47922885 -0.93113293 -0.42475235]
[ 1.10741152 -1.73877416  1.10705804  0.3428427   0.19774316 -0.03790373
  0.92515719 -0.83527727  1.38296704  0.42848373 -0.98187805 -0.77106449]
[ 1.40297853 -1.44320715  1.40262505  0.63840971 -0.09782385 -0.33347074
  0.62959018 -0.53971026  1.67853405  0.13291672 -1.27744506 -0.47549747]
[ 0.96474855 -1.58732303  1.25850917  0.49429383  0.04629203 -0.18935486
  0.77370607 -0.97794024  1.24030407  0.5711467  -1.13332918 -0.61961336]
[ 1.25886265 -1.88143713  0.96439507  0.20017973  0.34040613  0.10475924
  1.06782016 -0.68382614  1.53441817  0.2770326  -0.83921508 -0.91372745]
[ 1.20669156 -1.82926604  1.30930159  0.25235081 -0.0045004   0.05258816
  1.01564908 -0.73599723  1.18951164  0.62193912 -0.89138616 -0.86155637]
[ 0.91395613 -1.5365306   1.01656616  0.54508625  0.28823504 -0.24014728
  0.72291364 -1.02873267  1.48224708  0.32920368 -1.1841216  -0.56882093]
[ 1.17269625 -1.79527073  1.27530628  0.57777023  0.32091903  0.01859285
  0.98165377 -0.76999254  1.22350695  0.2965197  -1.21680558 -0.53613695]
[ 0.88127214 -1.50384662  0.98388217  0.28634612  0.02949492 -0.27283127
  0.69022966 -1.06141665  1.51493107  0.58794381 -0.92538147 -0.82756106]
[ 1.24236624 -1.86494071  1.05480216  0.35726611  0.1004149  -0.20191128
  1.05132375 -0.70032256  1.15383697  0.51702383 -1.28647557 -0.46646697]
[ 0.95219213 -1.57476661  1.34497627  0.64744022  0.39058901  0.08826283
  0.76114964 -0.99049666  1.44401108  0.22684972 -0.99630146 -0.75664107]
[ 1.18125097 -1.80382544  1.11591743  0.70736155  0.45051035  0.14818417
  0.70122831 -1.050418    1.21495224  0.45590856 -0.93638012 -0.52758223]
[ 0.89227079 -1.51484527  1.4048976   0.41838138  0.16153017 -0.14079601
  0.99020848 -0.76143783  1.50393242  0.16692838 -1.2253603  -0.81656241]
[ 0.88759411 -1.51016859  1.40957429  0.4137047   0.15685349  0.14236501
  0.70704746 -0.75676115  1.5086091   0.1622517  -1.23003698 -0.82123909]
[ 1.17543182 -1.79800629  1.12173658  0.7015424   0.44469119 -0.14547269
  0.99488516 -1.04459885  1.22077139  0.4500894  -0.94219927 -0.53340139]
[ 0.86694767 -1.48952215  1.43022072  0.67980088  0.42294967 -0.12373117
  0.97314364 -0.73611471  1.52925554  0.14160526 -0.96394079 -0.84188553]
[ 1.15369029 -1.77626477  1.1434781   0.39305826  0.13620705  0.16301145
  0.68640102 -1.02285733  1.24251291  0.42834788 -1.25068342 -0.55514291]
[ 0.87580697 -1.78407276  1.42136142  0.38525027  0.41409037 -0.11487187
  0.96428434 -0.74497401  1.52039623  0.15046456 -0.9728001  -0.54733492]
[ 1.16149828 -1.49838145  1.13567011  0.67094158  0.12839906  0.17081944
  0.67859303 -1.03066532  1.23470492  0.43615587 -1.25849141 -0.83302623]
[ 1.19745391 -1.46242583  1.09971449  0.7068972   0.37712399 -0.07790548
  0.6426374  -1.06662094  1.1987493   0.4721115  -1.00976648 -0.86898185]
[ 0.91277336 -1.74710638  1.38439504  0.42221665  0.09244344  0.20677507
  0.92731795 -0.78194039  1.48342985  0.18743095 -1.29444703 -0.5843013 ]
[ 1.21140302 -1.44847671  1.36947282  0.43713887  0.3910731   0.19185285
  0.62868829 -1.08057006  1.18480018  0.48606061 -0.99581736 -0.59922351]
[ 0.92769557 -1.73218416  1.08576537  0.72084632  0.10736565 -0.0918546
  0.91239574 -0.79686261  1.46850764  0.20235316 -1.27952482 -0.88293097]
[ 1.16381946 -1.49606027  1.03911983  0.76749186  0.06072011  0.14426929
  0.95904128 -0.75021707  1.23238374  0.43847705 -1.32617036 -0.64680708]
[ 0.88105003 -1.77882971  1.32188926  0.48472243  0.34348954 -0.13850014
  0.67627185 -1.0329865   1.51515318  0.15570762 -1.04340092 -0.92957651]
[ 0.83160722 -1.82827251  1.37133207  0.71714377  0.39293235 -0.18794295
  0.90869319 -1.08242931  1.56459599  0.10626481 -0.99395812 -0.69715517]
[ 1.11347137 -1.54640836  1.08946792  0.43527962  0.1110682   0.0939212
  0.62682904 -0.80056516  1.28273183  0.38812896 -1.27582227 -0.97901932]
[ 0.86206731 -1.79781242  1.34087198  0.68668368  0.36247226  0.12350664
  0.5972436  -1.05196922  1.2531464   0.4177144  -1.02441821 -0.72761526]
[ 1.14305681 -1.51682293  1.05988249  0.40569418  0.08148277 -0.15748286
  0.8782331  -0.77097972  1.53413589  0.1367249  -1.3054077  -1.00860475]
[ 1.08350937 -1.57637037  1.11942993  0.74538517  0.42117375  0.18220813
  0.53854211 -0.83052717  1.47458845  0.47641589 -1.24586026 -0.66891376]
[ 0.80336582 -1.85651392  1.39957347  0.46524163  0.14103021 -0.09793541
  0.81868566 -1.11067071  1.19444491  0.19627235 -0.96571671 -0.94905731]
[ 0.86339879 -1.79648094  1.06021594  0.80459916  0.48038774 -0.03790244
  0.75865268 -1.05063774  1.25447788  0.53562988 -1.02574969 -0.60969978]
[ 1.14272335 -1.51715639  1.3395405   0.5252746   0.20106318  0.24142212
  0.47932812 -0.77131318  1.53380244  0.25630532 -1.30507424 -0.88902433]
[ 1.17712647 -1.7612842   1.09541268  0.49087148  0.445191   -0.0027057
  0.72345594 -0.73691006  1.28967462  0.50043314 -1.06094643 -0.64489652]
[ 0.89859553 -1.48275327  1.37394362  0.76940242  0.16666006  0.27582524
  0.44492501 -1.015441    1.56820555  0.2219022  -1.33947736 -0.92342745]
[ 1.13685383 -1.44325034  1.13568532  0.53114412  0.12715714  0.31532816
  0.68318331 -0.7771827   1.32994725  0.18239928 -1.37898029 -0.68516915]
[ 0.85909261 -1.72101157  1.41344654  0.80890534  0.40491836  0.03756694
  0.40542208 -1.05494392  1.60770848  0.4601605  -1.10121906 -0.96293038]
[ 0.89833019 -1.4047599   1.37420896  0.49265367  0.0886667   0.3538186
  0.44465967 -1.01570634  1.56847089  0.42092292 -1.14045665 -0.92369279]
[ 1.17534428 -1.68177398  1.09719488  0.76966776  0.36568078  0.07680452
  0.72167375 -0.73869225  1.29145681  0.14390883 -1.41747073 -0.64667871]
[ 9.76394021e-01 -1.48282373e+00  1.29614513e+00  8.47005783e-01
  4.43018805e-01 -5.33505979e-04  5.22723493e-01 -9.37642510e-01
  1.49040707e+00  6.65708081e-02 -1.49480876e+00 -5.69340684e-01]
[ 1.2526823  -1.75911201  1.01985685  0.5707175   0.16673052  0.27575478
  0.79901178 -0.66135423  1.21411879  0.34285909 -1.21852047 -0.84562897]
[ 1.29892698 -1.529774    1.24919486  0.80005551  0.12048585  0.04641676
  0.56967376 -0.89069224  1.4434568   0.38910376 -1.44785849 -0.89187364]
[ 1.02334429 -1.80535668  0.97361218  0.52447283  0.39606854  0.32199945
  0.84525645 -0.61510955  1.16787411  0.11352108 -1.1722758  -0.61629095]
[ 1.02452283 -1.80417814  1.24968697  0.52565137  0.11999374  0.04592465
  0.56918165 -0.6162881   1.16905265  0.11469962 -1.17345434 -0.61746949]
[ 1.29941909 -1.52928189  0.97479072  0.80054762  0.39488999  0.32082091
  0.84407791 -0.89118435  1.44394891  0.38959587 -1.4483506  -0.89236575]
[ 1.24961183 -1.57908915  1.29882599  0.75074036  0.07085472  0.27101365
  0.79427065 -0.84137709  1.11991364  0.0655606  -1.39854334 -0.56833048]
[ 0.97538382 -1.85331716  1.02459798  0.47651235  0.34508274 -0.00321436
  0.52004264 -0.56714908  1.39414165  0.33978861 -1.12431533 -0.84255849]
[ 0.93618588 -1.61893803  0.98540004  0.43731442  0.11070361 -0.0424123
  0.4808447  -0.8015282   1.15976252  0.37898655 -1.35869445 -0.88175642]
[ 1.20976294 -1.89251509  1.2589771   0.71089148  0.38428067  0.23116476
  0.75442176 -0.52795115  1.43333958  0.10540949 -1.08511739 -0.60817936]
[ 0.94799408 -1.90368879  1.27015081  0.72206518  0.12251181  0.24233847
  0.4926529  -0.51677744  1.17157072  0.36717835 -1.34688625 -0.86994823]
[ 1.22093664 -1.63074623  0.99720824  0.44912261  0.39545437 -0.0306041
  0.76559547 -0.78972001  1.44451328  0.09423578 -1.07394369 -0.59700566]
[ 1.17224277 -1.67944011  1.31822587  0.49781649  0.07443674  0.29041353
  0.71690159 -0.46870237  1.12349565  0.41525342 -1.39496132 -0.91802329]
[ 0.89991901 -1.95176386  1.04590212  0.77014025  0.34676049  0.01808978
  0.44457783 -0.74102613  1.39581941  0.14292966 -1.12263757 -0.64569954]
[ 0.88188965 -1.69807332  1.29959266  0.5164497   0.36478985  0.27178032
  0.69826838 -0.48733559  1.14212886  0.39662021 -1.37632811 -0.89939008]
[ 1.15360955e+00 -1.96979322e+00  1.02787276e+00  7.88169608e-01
  9.30699503e-02  6.04204308e-05  4.26548474e-01 -7.59055489e-01
  1.41384876e+00  1.24900303e-01 -1.10460821e+00 -6.27670179e-01]
[ 0.87593395 -1.69211762  1.30554836  0.78162434  0.37074555  0.27773602
  0.70422408 -0.48137988  1.40730349  0.13144557 -1.11115348 -0.63421545]
[ 1.14706428 -1.96324795  1.03441803  0.510494    0.09961522  0.00660569
  0.43309374 -0.75251022  1.13617316  0.40257591 -1.38228381 -0.90534578]
[ 1.12711113 -1.67274038  1.3249256   0.53044716  0.39012279  0.02655884
  0.72360131 -0.46200265  1.15612631  0.11206834 -1.09177624 -0.61483821]
[ 0.85655671 -1.9432948   1.05437118  0.80100157  0.11956837  0.29711326
  0.4530469  -0.73255707  1.42668073  0.38262275 -1.36233066 -0.88539263]
[ 1.17655606 -1.62329545  1.10437897  0.48100223  0.43956772  0.24710548
  0.50305468 -0.68254928  1.10668139  0.33261497 -1.04233132 -0.56539329]
[ 0.9065645  -1.89328701  1.37437053  0.75099379  0.16957616 -0.02288608
  0.77304624 -0.41255772  1.37667295  0.06262341 -1.31232288 -0.83538485]
[ 1.18272269 -1.61712882  1.09821233  0.47483559  0.44573435  0.25327211
  0.76632926 -0.41927471  1.36995596  0.33878161 -1.03616468 -0.55922665]
[ 0.91328148 -1.88657003  1.36765354  0.7442768   0.17629314 -0.0161691
  0.49688805 -0.68871592  1.10051475  0.0693404  -1.30560589 -0.82866786]
[ 1.18414995 -1.61570156  1.36568792  0.47340834  0.17825876 -0.01420348
  0.76775652 -0.6867503   1.10248037  0.34020886 -1.30364027 -0.55779939]
[ 0.9152471  -1.88460441  1.09678507  0.74231118  0.44716161  0.25469937
  0.49885367 -0.41784745  1.37138322  0.07130602 -1.03473742 -0.82670224]
[ 0.86209889 -1.93775262  1.04363686  0.52708341  0.50030982  0.03947159
  0.71408144 -0.63307522  1.42453143  0.01815781 -1.2499652  -0.61147447]
[ 1.13047488 -1.66937663  1.31201285  0.79545939  0.23193383  0.30784758
  0.44570546 -0.36469924  1.15615545  0.28653379 -0.98158921 -0.87985045]
[ 1.20396017 -1.59589134  1.38549814  0.60108452  0.42630871  0.11347271
  0.37222017 -0.29121394  1.35053032  0.09215892 -1.17596408 -0.95333574]
[ 0.93610001 -1.86375151  1.11763798  0.86894469  0.15844854  0.38133287
  0.64008033 -0.55907411  1.08267015  0.36001908 -0.90810392 -0.68547558]
[ 1.01174108 -1.52075549  1.19327905  0.79330361  0.50144456  0.03833685
  0.29708431 -0.21607809  1.15831123  0.28437801 -0.98374499 -1.0284716 ]
[ 1.27909602 -1.78811043  1.46063399  0.52594867  0.23408962  0.3056918
  0.56443926 -0.48343304  1.42566617  0.01702307 -1.25109994 -0.76111665]
[ 0.93450715 -1.71038148  1.38290504  0.87053755  0.57867849  0.22796285
  0.4867103  -0.40570408  1.08107729  0.36161194 -1.17337098 -1.10570553]
[ 1.20136707 -1.44352156  1.11604512  0.60367762  0.31181857 -0.03889708
  0.21985038 -0.13884416  1.34793722  0.09475202 -0.90651106 -0.83884561]
[ 1.1728029  -1.73846044  1.14460928  0.89861651  0.60675745 -0.01033291
  0.51478926 -0.16740833  1.05299833  0.12331619 -1.20144994 -0.86740977]
[ 0.90642819 -1.47208572  1.410984    0.63224179  0.34038274  0.25604181
  0.24841455 -0.43378304  1.31937305  0.3896909  -0.93507523 -1.13378449]
[ 0.97300345 -1.80455995  1.34440873  0.69881706  0.406958   -0.07643241
  0.31498981 -0.36720778  1.25279779  0.32311564 -1.00165049 -1.06720923]
[ 1.23890241 -1.53866099  1.07850978  0.96471601  0.67285696  0.18946654
  0.58088877 -0.10130882  0.98689883  0.05721668 -1.26754945 -0.80131027]
[ 0.93925289 -1.8383105   1.112727    0.93049879  0.63863974 -0.11018297
  0.28123925 -0.40095834  1.02111605  0.0914339  -1.23333223 -1.10095978]
[ 1.20468519 -1.57287821  1.37815929  0.6650665   0.37320744  0.15524932
  0.54667155 -0.13552604  1.28654834  0.3568662  -0.96789993 -0.83552749]
[ 1.13417201 -1.64339139  1.0426717   0.73557968  0.44372062  0.08473614
  0.47615837 -0.20603922  1.21603516  0.28635302 -1.03841311 -1.17101508]
[ 0.8691976  -1.9083658   1.30764611  1.00055409  0.70869503 -0.18023827
  0.21118396 -0.47101363  0.95106075  0.0213786  -1.30338753 -0.90604067]
[ 0.85317139 -1.92439201  1.32367232  0.7520553   0.72472125 -0.19626448
  0.19515775 -0.48703984  1.19955954  0.00535239 -1.31941374 -1.15453945]
[ 1.11769638 -1.65986702  1.05914733  1.0165803   0.46019625  0.06826052
  0.45968274 -0.22251485  0.93503454  0.26987739 -1.05488874 -0.89001446]
[ 1.1349674  -1.642596    1.30596006  0.76976757  0.70700898 -0.17855222
  0.47695376 -0.20524383  1.18184727  0.02306466 -1.03761772 -0.87274344]
[ 0.87088365 -1.90667975  1.04187631  1.03385132  0.44292523  0.08553153
  0.21287001 -0.46932758  0.91776352  0.28714841 -1.30170147 -1.13682719]
[ 0.85346015 -1.92410325  1.02445282  0.78762442  0.68915213  0.10295503
  0.45909691 -0.48675108  0.90034003  0.0409215  -1.31912497 -1.15425069]
[ 1.11711055 -1.66045285  1.28810321  1.05127481  0.42550174 -0.16069537
  0.19544651 -0.22310068  1.16399043  0.3045719  -1.05547457 -0.89060029]
[ 1.06020193 -1.98058614  1.23119459  0.99436619  0.74563503  0.15943793
  0.51557981 -0.2800093   0.84385713 -0.01556139 -1.37560787 -0.94750891]
[ 0.79697725 -1.71736147  0.96796992  0.73114152  0.48241036 -0.10378675
  0.25235513 -0.54323398  1.1070818   0.24766328 -1.1123832  -1.21073358]
[ 0.80298812 -1.98617866  1.23678711  0.73715239  0.48842123  0.16503045
  0.52117233 -0.53722311  1.10107094  0.24165241 -1.38120039 -0.94191639]
[ 1.06579445 -1.72337234  0.97398079  0.99995871  0.75122755 -0.09777588
  0.258366   -0.27441678  0.83826461 -0.02115391 -1.11839406 -1.20472272]
[ 0.8692577  -1.91990909  0.90812242  1.06581707  0.5546908  -0.16363424
  0.45490275 -0.47095353  0.77240625  0.17538284 -1.0525357  -1.27058108]
[ 1.13165281 -1.65751397  1.17051753  0.80342196  0.81708592  0.09876087
  0.19250764 -0.20855842  1.03480136 -0.08701228 -1.31493081 -1.00818597]
[ 1.10534589 -1.68382089  1.14421062  1.09171969  0.790779   -0.18953685
  0.21881455 -0.23486533  1.00849444  0.20128545 -1.02663309 -1.29648369]
[ 0.84335509 -1.9458117   0.88221981  0.82972888  0.52878819  0.07245395
  0.48080536 -0.49685614  0.74650363 -0.06070536 -1.2886239  -1.03449288]
[ 1.13373002 -1.91702996  0.91100155  0.85851062  0.81916312  0.04367222
  0.45202362 -0.20648121  1.03687856 -0.03192362 -1.25984216 -1.06327462]
[ 0.87213682 -1.65543677  1.17259474  1.12010381  0.55756993 -0.21792098
  0.19043043 -0.4680744   0.77528537  0.22966957 -0.99824897 -1.32486781]
[ 1.13516752 -1.65726541  0.90956404  1.11827517  0.55939857  0.04510972
  0.45346113 -0.46624576  1.03831607  0.22784093 -1.00007761 -1.06183712]
[ 0.87396546 -1.91846746  1.1707661   0.85707311  0.82060063 -0.21609234
  0.19225907 -0.20504371  0.77711401 -0.03336113 -1.26127966 -1.32303917]
[ 0.91159367 -1.62002205  1.13313789  0.89470132  0.78297242 -0.17846413
  0.22988728 -0.24267192  1.07555943  0.26508429 -1.22365145 -1.02459376]
[ 1.17241088 -1.88083925  0.87232069  1.15551852  0.52215521  0.08235308
  0.49070448 -0.50348912  0.81474222  0.00426708 -0.96283425 -1.28541096]
[ 1.21625553 -1.92468391  1.08891447  1.19936318  0.47831056 -0.13424071
  0.53454914 -0.28689533  0.77089757 -0.03957757 -0.91898959 -1.06881718]
[ 0.95581709 -1.66424547  0.82847603  0.93892474  0.738749    0.12619773
  0.2741107  -0.54733378  1.03133601  0.22086087 -1.17942804 -1.32925562]
[ 0.92756378 -1.63599216  1.06028832  1.17073702  0.50693671 -0.10561455
  0.50592298 -0.57558708  0.79952372 -0.01095142 -0.94761575 -1.09744333]
[ 1.18762938 -1.89605775  0.80022272  0.91067143  0.76700231  0.15445104
  0.24585739 -0.31552149  1.05958932  0.24911418 -1.20768134 -1.35750893]
[ 1.21016386 -1.91859224  1.03738672  1.14783542  0.78953679 -0.08271295
  0.2233229  -0.55268548  1.0821238   0.27164866 -0.97051735 -1.12034493]
[ 0.95046538 -1.65889376  0.77768824  0.88813694  0.52983831  0.17698553
  0.48302138 -0.292987    0.82242532  0.01195018 -1.23021583 -1.38004342]
[ 0.92136328 -1.88912859  0.74858613  1.11837178  0.50073621 -0.05324931
  0.25278655 -0.2638849   0.79332322  0.24218502 -0.999981   -1.40914552]
[ 1.18070022 -1.62979165  1.00792307  0.85903484  0.76007315  0.20608763
  0.51212349 -0.52322184  1.05266016 -0.01715192 -1.25931794 -1.14980858]
[ 1.18008405 -1.88938863  0.74832609  1.11863181  0.50047617 -0.05350934
  0.51150733 -0.26362486  0.79306318  0.24244505 -0.99972096 -1.15042475]
[ 0.92110324 -1.63040782  1.0073069   0.859651    0.75945698  0.20547147
  0.25252651 -0.52260567  1.05204399 -0.01653576 -1.25870177 -1.40940556]
[ 1.1869239  -1.89622847  0.74148625  0.86684171  0.75226627  0.19828076
  0.51834717 -0.51541496  0.78622334  0.2492849  -0.99288112 -1.1435849 ]
[ 0.92829395 -1.63759853  1.00011619  1.12547166  0.49363633 -0.06034919
  0.25971723 -0.25678502  1.04485328 -0.00934505 -1.25151106 -1.40221485]
[ 0.917109   -1.88469776  1.01130115  0.87837243  0.74073556 -0.07153414
  0.24853227 -0.24560006  1.05603824 -0.02053    -1.26269602 -1.15511562]
[ 1.17539318 -1.62641357  0.75301696  1.13665661  0.48245137  0.18675004
  0.50681646 -0.50388425  0.79775405  0.23775418 -1.00441183 -1.4133998 ]
[ 1.12264115 -1.67916561  1.0637124   1.08390458  0.79314681  0.13399801
  0.45406442 -0.45113221  0.85050608  0.18500215 -1.31510727 -1.10270436]
[ 0.86469774 -1.93710901  0.805769    0.82596117  0.5352034  -0.12394539
  0.19612102 -0.19318881  1.10844949 -0.07294126 -1.05716387 -1.36064777]
[ 0.88757417 -1.65662513  1.08625288  1.10644506  0.81568729  0.15653849
  0.21899744 -0.47367269  0.8279656   0.20754263 -1.08004029 -1.08016388]
[ 1.14518163 -1.91423259  0.82864542  0.8488376   0.55807983 -0.10106897
  0.4766049  -0.21606523  1.08557306 -0.05006483 -1.33764775 -1.33777134]
[ 1.13914678 -1.90819774  1.09195649  0.85487245  0.8213909  -0.09503412
  0.21329383 -0.22210008  0.82226199  0.21324624 -1.07433668 -1.3317365 ]
[ 0.88187056 -1.65092152  0.83468027  1.11214867  0.56411468  0.1622421
  0.47057005 -0.4793763   1.07953822 -0.04402998 -1.3316129  -1.07446027]
[ 1.08183398 -1.85088494  1.03464369  1.16913482  0.50712853  0.21922825
  0.27060663 -0.27941288  1.13652437 -0.10101613 -1.13164948 -1.2744237 ]
[ 0.82488441 -1.59393537  0.77769412  0.91218525  0.7640781  -0.03772132
  0.5275562  -0.53636245  0.87957479  0.15593344 -1.38859905 -1.01747412]
[ 0.80866486 -1.57771582  1.01810196  0.8959657   0.78029765  0.20268652
  0.28714836 -0.29595461  1.11998263 -0.0844744  -1.14819121 -1.25788196]
[ 1.06529225 -1.83434321  0.76147457  1.15259309  0.52367026 -0.05394087
  0.54377575 -0.552582    0.86335525  0.17215299 -1.4048186  -1.00125458]
[ 1.10642646 -1.87547742  0.72034036  0.93741775  0.48253604  0.16123447
  0.58490997 -0.59371621  1.07853058  0.2132872  -1.44595281 -0.96012036]
[ 0.85011691 -1.61916787  0.97664991  1.1937273   0.7388456  -0.09507508
  0.32860041 -0.33740666  0.82222103 -0.04302235 -1.18964326 -1.21642991]
[ 1.0692003  -1.58225531  1.01356247  1.23063987  0.77575816  0.12400831
  0.54768381 -0.55649006  0.78530847  0.17606104 -1.40872665 -1.25334248]
[ 0.81320435 -1.83825126  0.75756652  0.97464391  0.5197622  -0.13198765
  0.29168785 -0.3004941   1.04130442 -0.07993491 -1.1527307  -0.99734652]
[ 1.05271857 -1.85442354  0.74139425  1.21415813  0.50358993 -0.14815992
  0.27551558 -0.28432183  1.0574767  -0.09610718 -1.13655843 -0.98117425]
[ 0.79703208 -1.59873705  0.99708074  0.95847164  0.75927642  0.10752657
  0.53120207 -0.54000832  0.8017902   0.15957931 -1.39224492 -1.23686074]
[ 0.79432813 -1.5960331   0.74440362  1.21114875  0.50659931 -0.14515054
  0.27852496 -0.54271226  0.79908626  0.16228325 -1.1395678  -0.98418363]
[ 1.04970919 -1.85141416  0.99978468  0.9557677   0.76198037  0.11023052
  0.53390601 -0.28733121  1.05446732 -0.09309781 -1.39494886 -1.23956468]
[ 1.04191266 -1.84361763  0.99198815  0.96356423  0.49910428  0.10243399
  0.52610948 -0.29512774  0.79159123 -0.08530128 -1.38715233 -0.9766886 ]
[ 0.78683311 -1.58853807  0.7369086   1.21864378  0.75418384 -0.15264557
  0.27102993 -0.55020729  1.04667079  0.16977828 -1.13207278 -1.23176815]
[ 0.81022393 -1.6119289   0.76029942  0.94047107  0.73079301 -0.12925474
  0.54920264 -0.27203458  1.02327996  0.14638745 -1.41024549 -1.20837733]
[ 1.06500582 -1.86671079  1.01508131  1.19525295  0.47601112  0.12552714
  0.29442076 -0.52681646  0.76849808 -0.10839443 -1.1554636  -0.95359544]
[ 0.80549265 -1.86168558  1.0100561   0.93573978  0.48103633 -0.13398603
  0.55393393 -0.26730329  1.02801125  0.15111874 -1.41497677 -0.95862065]
[ 1.05998061 -1.60719762  0.75556814  1.19022774  0.73552429  0.12050193
  0.29944597 -0.52179125  0.77352329 -0.10336922 -1.16048881 -1.21310861]
[ 0.78233055 -1.63064999  0.77902051  0.91257768  0.71207192 -0.15714813
  0.57709603 -0.49833888  0.79697566 -0.07991685 -1.43813887 -0.93545855]
[ 1.03652824 -1.88484768  1.0332182   1.16677537  0.45787423  0.09704956
  0.32289834 -0.24414119  1.05117335  0.17428084 -1.18394118 -1.18965624]
[ 1.04659731 -1.89491675  0.78937628  0.92293345  0.70171615  0.10711863
  0.31282927 -0.48798311  0.80733143  0.18434991 -1.4277831  -0.94581432]
[ 0.79268632 -1.64100576  1.04328727  1.17684444  0.44780516 -0.14679236
  0.56674026 -0.23407212  1.06124242 -0.06956108 -1.17387211 -1.19972531]
[ 0.76567188 -1.61399131  0.81667394  0.95023111  0.42079072  0.07982098
  0.34012692 -0.20705768  1.08825686 -0.09657552 -1.14685767 -1.22673975]
[ 1.01929965 -1.86761909  1.07030171  1.20385888  0.6744185  -0.1738068
  0.5937547  -0.46068545  0.83462909  0.15705225 -1.40048545 -0.97311198]
[ 1.01717967 -1.61215115  1.06818174  0.94839094  0.67229852  0.08166114
  0.33828676 -0.20521751  0.83674906 -0.09841569 -1.39836547 -1.22857992]
[ 0.76383171 -1.86549911  0.81483377  1.20173891  0.41895055 -0.17168682
  0.59163472 -0.45856548  1.09009703  0.15493227 -1.1450175  -0.97523196]
[ 0.99731896 -1.88508335  1.04832102  0.96825166  0.65243781  0.06180043
  0.35814747 -0.47814971  0.85660978  0.17451651 -1.37850476 -0.95564772]
[ 0.74424747 -1.63201186  0.79524954  1.22132314  0.39936632 -0.19127105
  0.61121896 -0.22507822  1.10968126 -0.07855498 -1.12543327 -1.20871921]
[ 0.72066011 -1.60842449  0.77166217  1.24491051  0.37577895  0.03793984
  0.38200806 -0.20149086  0.88047037  0.15065591 -1.1018459  -1.23230658]
[ 0.97345836 -1.86122275  1.02446043  0.99211225  0.62857721 -0.21485842
  0.63480632 -0.45428912  1.13326863 -0.10214235 -1.35464416 -0.97950832]
[ 0.7122296  -1.8525222   0.76323167  1.25334101  0.36734845 -0.20615788
  0.37357756 -0.19306036  0.87203987 -0.0934418  -1.34594362 -1.24073708]
[ 0.96475782 -1.59999399  1.01575988  1.0008128   0.61987666  0.04637034
  0.62610578 -0.44558857  1.12456808  0.15908641 -1.0934154  -0.98820886]
[ 0.72441672 -1.58807381  1.02768006  1.2411539   0.37953556 -0.19397076
  0.63802596 -0.45750875  0.88422698  0.17100659 -1.08149522 -1.22854996]
[ 0.976678   -1.84033509  0.77541878  0.98889262  0.63179685  0.05829052
  0.38576468 -0.20524747  1.13648826 -0.08125469 -1.3337565  -0.97628868]
[ 0.94819011 -1.55984981  0.80390667  1.0173805   0.60330896 -0.22219476
  0.66624996 -0.48573275  1.10800038 -0.0527668  -1.05327122 -1.25677396]
[ 0.69619272 -1.8118472   1.05590406  1.2693779   0.35131157  0.02980263
  0.41425257 -0.23373536  0.85600298  0.19923059 -1.30526861 -1.00477657]
[ 0.94105457 -1.81872184  1.0627787   1.02451605  0.34443693 -0.21505922
  0.40737793 -0.22686072  0.84912835 -0.04563125 -1.31214325 -1.24963842]
[ 0.68931808 -1.56698536  0.81104222  1.27625253  0.59617341  0.03667727
  0.65911441 -0.4785972   1.10086483  0.20610523 -1.06040677 -0.99790193]
[ 0.8984466  -1.52463539  1.02017073  1.06712401  0.38704489 -0.17245125
  0.44998589 -0.52094717  0.89173631  0.2484552  -1.0180568  -0.95555197]
[ 0.64696812 -1.77611388  0.76869225  1.3186025   0.63852338  0.07902723
  0.70146438 -0.26946868  1.1432148  -0.00302329 -1.26953529 -1.20703045]
[ 0.61487324 -1.80820875  0.98782072  1.35069737  0.67061825 -0.14010124
  0.48233591 -0.48859715  1.17530967  0.21610518 -1.30163016 -1.23912533]
[ 0.86609659 -1.55698541  0.73659737  1.09947403  0.41939491  0.11112211
  0.73355925 -0.23737381  0.92408633 -0.03511816 -1.05040682 -0.98790198]
[ 0.61430406 -1.80877793  0.9883899   1.35126656  0.42021644 -0.14067042
  0.73273772 -0.48916634  0.92490786  0.21667436 -1.30219935 -1.23969451]
[ 0.86527505 -1.55780694  0.73741891  1.10029556  0.67118744  0.11030058
  0.48176673 -0.23819534  1.17587885 -0.03429663 -1.05122835 -0.98872352]
[ 0.62125826 -1.55110235  0.73071432  1.34431236  0.42717064  0.11700516
  0.72578352 -0.48221214  1.18258344  0.20972017 -1.29524515 -0.98201893]
[ 0.87197964 -1.80182374  0.9814357   1.09359098  0.67789202 -0.13371622
  0.47506214 -0.23149076  0.93186206 -0.04100122 -1.04452377 -1.23274031]
[ 0.90057968 -1.57994933  0.7595613   1.31546538  0.45601762  0.08815818
  0.69693655 -0.20289071  0.90326201  0.18087319 -1.26639817 -1.01086591]
[ 0.65010523 -1.83042378  1.01003575  1.06499093  0.70649207 -0.16231627
  0.4464621  -0.45336516  1.15373646 -0.06960126 -1.01592372 -1.26134036]
[ 0.64094058 -1.58935829  1.0192004   1.30605642  0.71565672 -0.17148092
  0.43729744 -0.21229967  0.91267097 -0.07876591 -1.00675907 -1.02027487]
[ 0.89117072 -1.83958843  0.76897026  1.05582628  0.46542657  0.07874923
  0.68752759 -0.46252981  1.16290111  0.17146423 -1.25698921 -1.27050501]
[ 0.63723114 -1.83563726  0.77292143  1.30976586  0.46937775 -0.17519036
  0.68357641 -0.45857864  1.15894994 -0.08247535 -1.00304963 -1.01656543]
[ 0.88721955 -1.58564885  1.02290984  1.05977746  0.71936616  0.07479805
  0.433588   -0.20859023  0.90896153  0.16751306 -1.25303804 -1.26655384]
[ 0.67129504 -1.55182416  0.80698533  1.27570197  0.75319084  0.10862274
  0.39976332 -0.17476555  1.12488604 -0.04841145 -1.03711353 -1.05062933]
[ 0.92104424 -1.80157336  1.05673453  1.02595277  0.50344165 -0.14112646
  0.64951251 -0.42451474  0.87513685  0.20133774 -1.28686272 -1.30037852]
[ 0.66438184 -1.54491096  0.80007213  1.28261517  0.51059159 -0.13397652
  0.39285012 -0.4173648   1.13179924  0.1941878  -1.27971278 -1.29322858]
[ 0.91389429 -1.79442342  1.04958458  1.03310271  0.76010404  0.11553594
  0.64236257 -0.16785235  0.88228679 -0.05532465 -1.03020033 -1.04371613]
[ 0.68172417 -1.81153143  0.81741446  1.0159947   0.52793392  0.13264395
  0.65947058 -0.40002247  0.86517878  0.17684548 -1.26237046 -1.27588625]
[ 0.9310023  -1.56225329  1.06669259  1.26527284  0.77721205 -0.11663419
  0.41019245 -0.15074434  1.11445692 -0.07243266 -1.01309232 -1.02660812]
[ 0.91409588 -1.82820592  1.04978617  0.99932021  0.51125943 -0.09972776
  0.67614507 -0.41669696  1.09755049 -0.05552623 -1.02999875 -1.04351455]
[ 0.66504968 -1.57915972  0.80073997  1.24836641  0.76030562  0.14931844
  0.42709887 -0.16765077  0.84850429  0.19351996 -1.27904494 -1.29256074]
[ 0.90407196 -1.818182    0.79094566  1.25816072  0.77009993 -0.08970385
  0.66612116 -0.40667305  1.08752657  0.20331427 -1.04002266 -1.05353846]
[ 0.65525537 -1.56936542  1.03976225  1.00934413  0.52128334  0.15911274
  0.41730457 -0.15785646  0.83870998 -0.04550232 -1.28883925 -1.30235505]
[ 0.89702797 -1.56254874  1.04657892  1.00252746  0.76305594 -0.08265985
  0.65907716 -0.15103979  0.83189331  0.19627028 -1.29565592 -1.30917172]
[ 0.6484387  -1.81113801  0.79798966  1.25111672  0.51446667  0.16592941
  0.4104879  -0.39962905  1.08048258 -0.05231899 -1.04706666 -1.06058245]
[ 0.92276093 -1.78517997  0.8239477   0.97679449  0.7887889  -0.10839282
  0.68481013 -0.12530683  0.80616035  0.22200324 -1.32138888 -1.0865405 ]
[ 0.67439675 -1.53681578  1.07231189  1.22515868  0.54042471  0.13997137
  0.43644594 -0.37367101  1.05452454 -0.02636095 -1.0730247  -1.33490468]
[ 0.89084487 -1.7532639   0.85586376  1.00871056  0.50873153  0.17166456
  0.40475275 -0.15722289  1.08621772  0.19008717 -1.04133151 -1.11845656]
[ 0.64270356 -1.50512259  1.10400507  1.25685187  0.75687283 -0.07647675
  0.65289406 -0.4053642   0.83807641 -0.05805413 -1.28947282 -1.36659787]
[ 0.92180519 -1.78422423  0.82490344  0.97775023  0.4777712  -0.04529571
  0.37379243 -0.12626256  1.11717805  0.2210475  -1.01037118 -1.33541683]
[ 0.6738846  -1.53630364  1.07282403  1.22567082  0.72569179  0.20262488
  0.62171302 -0.37418316  0.86925746 -0.02687309 -1.25829177 -1.08749623]
[ 0.92161989 -1.53633692  1.07279074  0.97793554  0.47795651  0.2025916
  0.62167973 -0.37414987  0.86929075  0.22086219 -1.25825849 -1.33523152]
[ 0.67391789 -1.78403892  0.82508874  1.22563754  0.7256585  -0.0451104
  0.37397773 -0.12644787  1.11699274 -0.0268398  -1.01055649 -1.08752952]
[ 0.66878135 -1.78917546  0.8199522   1.23077408  0.48330956 -0.05024694
  0.36884119 -0.12131133  0.8746438   0.21550914 -1.00541995 -1.08239298]
[ 0.91626683 -1.54168998  1.06743769  0.98328859  0.73079505  0.19723854
  0.61632668 -0.36879681  1.12212929 -0.03197635 -1.25290543 -1.32987847]
[ 0.89033334 -1.81489449  0.79423317  1.25649311  0.45759053 -0.07596597
  0.34312216 -0.0955923   1.09619579 -0.00604285 -0.97970092 -1.05667395]
[ 0.64306232 -1.56762347  1.04150419  1.00922209  0.70486155  0.17130505
  0.59039318 -0.34286332  0.84892477  0.24122817 -1.22697194 -1.30394497]
[ 0.64465703 -1.81627675  1.03990948  1.25787536  0.70326684  0.16971033
  0.3417399  -0.09421004  1.09757805 -0.00742511 -0.97831866 -1.05529169]
[ 0.8917156  -1.56921819  0.79285092  1.0108168   0.45620827 -0.07734823
  0.58879847 -0.3412686   0.85051949  0.23963345 -1.22537722 -1.30235026]
[ 0.6441574  -1.81677639  1.04040911  1.01152692  0.45691839  0.17020997
  0.34124027 -0.09371041  0.85122961 -0.00792474 -0.97781902 -1.30164013]
[ 0.89100547 -1.56992831  0.79356104  1.258375    0.70376647 -0.07663811
  0.58808835 -0.34055848  1.09807769  0.23892333 -1.2246671  -1.05479206]
[ 0.644267   -1.57002725  1.04029951  1.25827606  0.457028    0.17010036
  0.58798941 -0.09382001  0.85133922  0.23882439 -0.97792863 -1.30153053]
[ 0.89090653 -1.81666678  0.79365998  1.01163653  0.70366753 -0.07653917
  0.34134988 -0.34045954  1.09797875 -0.00781514 -1.22456816 -1.054891  ]
[ 0.75978053 -1.68554078  0.92478598  1.14276253  0.57254153  0.05458684
  0.47247588 -0.20933354  0.96685274  0.12331087 -1.09344216 -1.186017  ]
1648104024.600994
SPSA120-ZFeature4-RealAmplitudes4
1648104025.378101
[-0.14629493  0.46704543  0.56567049  0.77271178  0.43063219  0.37808334
  0.71072616  0.64456895  0.11300701  0.34469611  0.4518442   0.20279584
  0.1561997   0.1299267   0.48624791  0.51528976  0.16844978  0.43748805
  1.0554538   0.99848099]
[ 0.25370507  0.06704543  0.96567049  1.17271178  0.83063219  0.77808334
  1.11072616  1.04456895  0.51300701 -0.05530389  0.0518442   0.60279584
  0.5561997   0.5299267   0.08624791  0.91528976  0.56844978  0.03748805
  0.6554538   0.59848099]
[-0.14629493  0.06704543  0.56567049  0.77271178  0.83063219  0.37808334
  1.11072616  0.64456895  0.51300701  0.34469611  0.0518442   0.20279584
  0.1561997   0.5299267   0.48624791  0.51528976  0.16844978  0.43748805
  0.6554538   0.99848099]
[ 0.25370507  0.46704543  0.96567049  1.17271178  0.43063219  0.77808334
  0.71072616  1.04456895  0.11300701 -0.05530389  0.4518442   0.60279584
  0.5561997   0.1299267   0.08624791  0.91528976  0.56844978  0.03748805
  1.0554538   0.59848099]
[-0.14629493  0.46704543  0.96567049  0.77271178  0.83063219  0.37808334
  1.11072616  0.64456895  0.51300701 -0.05530389  0.4518442   0.20279584
  0.1561997   0.1299267   0.48624791  0.91528976  0.16844978  0.03748805
  0.6554538   0.99848099]
[0.25370507 0.06704543 0.56567049 1.17271178 0.43063219 0.77808334
 0.71072616 1.04456895 0.11300701 0.34469611 0.0518442  0.60279584
 0.5561997  0.5299267  0.08624791 0.51528976 0.56844978 0.43748805
 1.0554538  0.59848099]
[-0.14629493  0.46704543  0.56567049  1.17271178  0.43063219  0.77808334
  1.11072616  1.04456895  0.11300701 -0.05530389  0.0518442   0.20279584
  0.1561997   0.1299267   0.48624791  0.51528976  0.56844978  0.03748805
  1.0554538   0.59848099]
[0.25370507 0.06704543 0.96567049 0.77271178 0.83063219 0.37808334
 0.71072616 0.64456895 0.51300701 0.34469611 0.4518442  0.60279584
 0.5561997  0.5299267  0.08624791 0.91528976 0.16844978 0.43748805
 0.6554538  0.99848099]
[-0.14629493  0.46704543  0.96567049  1.17271178  0.83063219  0.77808334
  1.11072616  1.04456895  0.11300701  0.34469611  0.0518442   0.20279584
  0.1561997   0.1299267   0.48624791  0.91528976  0.16844978  0.43748805
  1.0554538   0.59848099]
[ 0.25370507  0.06704543  0.56567049  0.77271178  0.43063219  0.37808334
  0.71072616  0.64456895  0.51300701 -0.05530389  0.4518442   0.60279584
  0.5561997   0.5299267   0.08624791  0.51528976  0.56844978  0.03748805
  0.6554538   0.99848099]
[0.25370507 0.46704543 0.56567049 0.77271178 0.83063219 0.37808334
 1.11072616 1.04456895 0.11300701 0.34469611 0.0518442  0.20279584
 0.5561997  0.1299267  0.48624791 0.51528976 0.56844978 0.43748805
 1.0554538  0.99848099]
[-0.14629493  0.06704543  0.96567049  1.17271178  0.43063219  0.77808334
  0.71072616  0.64456895  0.51300701 -0.05530389  0.4518442   0.60279584
  0.1561997   0.5299267   0.08624791  0.91528976  0.16844978  0.03748805
  0.6554538   0.59848099]
[ 0.25370507  0.46704543  0.96567049  0.77271178  0.83063219  0.37808334
  1.11072616  1.04456895  0.51300701 -0.05530389  0.0518442   0.60279584
  0.5561997   0.1299267   0.48624791  0.91528976  0.16844978  0.03748805
  0.6554538   0.99848099]
[-0.14629493  0.06704543  0.56567049  1.17271178  0.43063219  0.77808334
  0.71072616  0.64456895  0.11300701  0.34469611  0.4518442   0.20279584
  0.1561997   0.5299267   0.08624791  0.51528976  0.56844978  0.43748805
  1.0554538   0.59848099]
[0.25370507 0.06704543 0.96567049 0.77271178 0.43063219 0.37808334
 1.11072616 1.04456895 0.11300701 0.34469611 0.4518442  0.60279584
 0.5561997  0.1299267  0.48624791 0.51528976 0.56844978 0.03748805
 1.0554538  0.59848099]
[-0.14629493  0.46704543  0.56567049  1.17271178  0.83063219  0.77808334
  0.71072616  0.64456895  0.51300701 -0.05530389  0.0518442   0.20279584
  0.1561997   0.5299267   0.08624791  0.91528976  0.16844978  0.43748805
  0.6554538   0.99848099]
[-0.14629493  0.06704543  0.96567049  1.17271178  0.83063219  0.77808334
  1.11072616  0.64456895  0.51300701  0.34469611  0.4518442   0.60279584
  0.1561997   0.5299267   0.48624791  0.91528976  0.56844978  0.03748805
  1.0554538   0.99848099]
[ 0.25370507  0.46704543  0.56567049  0.77271178  0.43063219  0.37808334
  0.71072616  1.04456895  0.11300701 -0.05530389  0.0518442   0.20279584
  0.5561997   0.1299267   0.08624791  0.51528976  0.16844978  0.43748805
  0.6554538   0.59848099]
[-0.14629493  0.06704543  0.96567049  1.17271178  0.43063219  0.37808334
  0.71072616  1.04456895  0.51300701  0.34469611  0.0518442   0.60279584
  0.5561997   0.1299267   0.48624791  0.91528976  0.16844978  0.03748805
  0.6554538   0.99848099]
[ 0.25370507  0.46704543  0.56567049  0.77271178  0.83063219  0.77808334
  1.11072616  0.64456895  0.11300701 -0.05530389  0.4518442   0.20279584
  0.1561997   0.5299267   0.08624791  0.51528976  0.56844978  0.43748805
  1.0554538   0.59848099]
[ 0.25370507  0.06704543  0.56567049  0.77271178  0.83063219  0.77808334
  1.11072616  1.04456895  0.11300701 -0.05530389  0.0518442   0.60279584
  0.5561997   0.1299267   0.48624791  0.91528976  0.16844978  0.03748805
  1.0554538   0.59848099]
[-0.14629493  0.46704543  0.96567049  1.17271178  0.43063219  0.37808334
  0.71072616  0.64456895  0.51300701  0.34469611  0.4518442   0.20279584
  0.1561997   0.5299267   0.08624791  0.51528976  0.56844978  0.43748805
  0.6554538   0.99848099]
[ 0.25370507  0.06704543  0.96567049  1.17271178  0.83063219  0.37808334
  0.71072616  0.64456895  0.11300701 -0.05530389  0.4518442   0.60279584
  0.5561997   0.1299267   0.48624791  0.51528976  0.56844978  0.43748805
  0.6554538   0.59848099]
[-0.14629493  0.46704543  0.56567049  0.77271178  0.43063219  0.77808334
  1.11072616  1.04456895  0.51300701  0.34469611  0.0518442   0.20279584
  0.1561997   0.5299267   0.08624791  0.91528976  0.16844978  0.03748805
  1.0554538   0.99848099]
[ 0.25370507  0.06704543  0.56567049  0.77271178  0.83063219  0.77808334
  0.71072616  0.64456895  0.51300701 -0.05530389  0.4518442   0.20279584
  0.5561997   0.5299267   0.48624791  0.91528976  0.56844978  0.43748805
  0.6554538   0.59848099]
[-0.14629493  0.46704543  0.96567049  1.17271178  0.43063219  0.37808334
  1.11072616  1.04456895  0.11300701  0.34469611  0.0518442   0.60279584
  0.1561997   0.1299267   0.08624791  0.51528976  0.16844978  0.03748805
  1.0554538   0.99848099]
[-0.14629493  0.06704543  0.96567049  0.77271178  0.43063219  0.37808334
  0.71072616  1.04456895  0.51300701  0.34469611  0.0518442   0.20279584
  0.1561997   0.1299267   0.08624791  0.51528976  0.56844978  0.43748805
  1.0554538   0.59848099]
[ 0.25370507  0.46704543  0.56567049  1.17271178  0.83063219  0.77808334
  1.11072616  0.64456895  0.11300701 -0.05530389  0.4518442   0.60279584
  0.5561997   0.5299267   0.48624791  0.91528976  0.16844978  0.03748805
  0.6554538   0.99848099]
[ 0.25370507  0.06704543  0.96567049  0.77271178  0.83063219  0.77808334
  1.11072616  1.04456895  0.11300701 -0.05530389  0.0518442   0.60279584
  0.5561997   0.5299267   0.48624791  0.51528976  0.16844978  0.03748805
  1.0554538   0.59848099]
[-0.14629493  0.46704543  0.56567049  1.17271178  0.43063219  0.37808334
  0.71072616  0.64456895  0.51300701  0.34469611  0.4518442   0.20279584
  0.1561997   0.1299267   0.08624791  0.91528976  0.56844978  0.43748805
  0.6554538   0.99848099]
[-0.14629493  0.06704543  0.56567049  1.17271178  0.83063219  0.77808334
  0.71072616  1.04456895  0.11300701  0.34469611  0.4518442   0.60279584
  0.1561997   0.1299267   0.08624791  0.91528976  0.16844978  0.03748805
  0.6554538   0.99848099]
[ 0.25370507  0.46704543  0.96567049  0.77271178  0.43063219  0.37808334
  1.11072616  0.64456895  0.51300701 -0.05530389  0.0518442   0.20279584
  0.5561997   0.5299267   0.48624791  0.51528976  0.56844978  0.43748805
  1.0554538   0.59848099]
[ 0.25370507  0.06704543  0.56567049  1.17271178  0.83063219  0.37808334
  1.11072616  0.64456895  0.51300701 -0.05530389  0.4518442   0.60279584
  0.5561997   0.5299267   0.48624791  0.91528976  0.16844978  0.03748805
  1.0554538   0.59848099]
[-0.14629493  0.46704543  0.96567049  0.77271178  0.43063219  0.77808334
  0.71072616  1.04456895  0.11300701  0.34469611  0.0518442   0.20279584
  0.1561997   0.1299267   0.08624791  0.51528976  0.56844978  0.43748805
  0.6554538   0.99848099]
[-0.14629493  0.06704543  0.56567049  1.17271178  0.83063219  0.37808334
  1.11072616  1.04456895  0.51300701 -0.05530389  0.4518442   0.60279584
  0.5561997   0.1299267   0.48624791  0.51528976  0.16844978  0.43748805
  1.0554538   0.59848099]
[0.25370507 0.46704543 0.96567049 0.77271178 0.43063219 0.77808334
 0.71072616 0.64456895 0.11300701 0.34469611 0.0518442  0.20279584
 0.1561997  0.5299267  0.08624791 0.91528976 0.56844978 0.03748805
 0.6554538  0.99848099]
[ 0.25370507  0.46704543  0.96567049  0.77271178  0.43063219  0.37808334
  1.11072616  0.64456895  0.51300701 -0.05530389  0.0518442   0.20279584
  0.1561997   0.1299267   0.08624791  0.51528976  0.16844978  0.43748805
  1.0554538   0.99848099]
[-0.14629493  0.06704543  0.56567049  1.17271178  0.83063219  0.77808334
  0.71072616  1.04456895  0.11300701  0.34469611  0.4518442   0.60279584
  0.5561997   0.5299267   0.48624791  0.91528976  0.56844978  0.03748805
  0.6554538   0.59848099]
[0.25370507 0.06704543 0.96567049 1.17271178 0.43063219 0.37808334
 1.11072616 0.64456895 0.51300701 0.34469611 0.4518442  0.20279584
 0.5561997  0.1299267  0.08624791 0.91528976 0.16844978 0.43748805
 0.6554538  0.99848099]
[-0.14629493  0.46704543  0.56567049  0.77271178  0.83063219  0.77808334
  0.71072616  1.04456895  0.11300701 -0.05530389  0.0518442   0.60279584
  0.1561997   0.5299267   0.48624791  0.51528976  0.56844978  0.03748805
  1.0554538   0.59848099]
[ 0.25370507  0.46704543  0.56567049  1.17271178  0.83063219  0.37808334
  0.71072616  1.04456895  0.51300701 -0.05530389  0.4518442   0.20279584
  0.1561997   0.1299267   0.08624791  0.51528976  0.16844978  0.43748805
  0.6554538   0.59848099]
[-0.14629493  0.06704543  0.96567049  0.77271178  0.43063219  0.77808334
  1.11072616  0.64456895  0.11300701  0.34469611  0.0518442   0.60279584
  0.5561997   0.5299267   0.48624791  0.91528976  0.56844978  0.03748805
  1.0554538   0.99848099]
[-0.14629493  0.06704543  0.96567049  1.17271178  0.83063219  0.77808334
  1.11072616  1.04456895  0.51300701 -0.05530389  0.4518442   0.60279584
  0.5561997   0.1299267   0.08624791  0.51528976  0.16844978  0.03748805
  0.6554538   0.99848099]
[0.25370507 0.46704543 0.56567049 0.77271178 0.43063219 0.37808334
 0.71072616 0.64456895 0.11300701 0.34469611 0.0518442  0.20279584
 0.1561997  0.5299267  0.48624791 0.91528976 0.56844978 0.43748805
 1.0554538  0.59848099]
[0.25370507 0.06704543 0.96567049 0.77271178 0.83063219 0.37808334
 0.71072616 0.64456895 0.51300701 0.34469611 0.0518442  0.20279584
 0.1561997  0.5299267  0.08624791 0.51528976 0.56844978 0.03748805
 0.6554538  0.99848099]
[-0.14629493  0.46704543  0.56567049  1.17271178  0.43063219  0.77808334
  1.11072616  1.04456895  0.11300701 -0.05530389  0.4518442   0.60279584
  0.5561997   0.1299267   0.48624791  0.91528976  0.16844978  0.43748805
  1.0554538   0.59848099]
[ 0.25370507  0.06704543  0.96567049  1.17271178  0.43063219  0.77808334
  0.71072616  1.04456895  0.51300701 -0.05530389  0.0518442   0.60279584
  0.1561997   0.5299267   0.08624791  0.91528976  0.56844978  0.43748805
  0.6554538   0.99848099]
[-0.14629493  0.46704543  0.56567049  0.77271178  0.83063219  0.37808334
  1.11072616  0.64456895  0.11300701  0.34469611  0.4518442   0.20279584
  0.5561997   0.1299267   0.48624791  0.51528976  0.16844978  0.03748805
  1.0554538   0.59848099]
[-0.14629493  0.46704543  0.96567049  1.17271178  0.43063219  0.37808334
  1.11072616  1.04456895  0.51300701 -0.05530389  0.4518442   0.60279584
  0.5561997   0.1299267   0.08624791  0.51528976  0.16844978  0.43748805
  1.0554538   0.99848099]
[0.25370507 0.06704543 0.56567049 0.77271178 0.83063219 0.77808334
 0.71072616 0.64456895 0.11300701 0.34469611 0.0518442  0.20279584
 0.1561997  0.5299267  0.48624791 0.91528976 0.56844978 0.03748805
 0.6554538  0.59848099]
[-0.14629493  0.06704543  0.96567049  0.77271178  0.83063219  0.77808334
  0.71072616  1.04456895  0.51300701 -0.05530389  0.4518442   0.20279584
  0.1561997   0.1299267   0.48624791  0.51528976  0.16844978  0.43748805
  0.6554538   0.59848099]
[0.25370507 0.46704543 0.56567049 1.17271178 0.43063219 0.37808334
 1.11072616 0.64456895 0.11300701 0.34469611 0.0518442  0.60279584
 0.5561997  0.5299267  0.08624791 0.91528976 0.56844978 0.03748805
 1.0554538  0.99848099]
[ 0.10311549  0.68941045  0.34330547  1.02212221  0.20826717  0.15571832
  1.33309118  0.42220392 -0.10935802  0.56706114  0.20243377  0.45220627
  0.40561013  0.75229172  0.23683749  0.76470019  0.7908148  -0.18487698
  1.27781882  0.84789142]
[ 0.47607009  0.31645586  0.71626007  1.3950768   0.58122176  0.52867292
  0.96013659  0.79515852  0.26359658  0.19410654 -0.17052082  0.82516086
  0.77856472  0.37933713 -0.13611711  1.13765478  0.41786021  0.18807762
  0.90486423  1.22084602]
[ 1.19194711 -0.75741104  1.43213708  2.46894369  1.29709878  1.60253981
  0.24425957  1.86902541  1.33746347 -0.52177047 -0.88639784  1.54103788
  1.49444174 -0.69452977 -1.209984    1.8535318  -0.29801681  1.26194451
  0.18898721  2.29471291]
[ 1.54993698 -0.39942116  1.79012696  2.11095382  1.65508865  1.24454993
 -0.11373031  1.51103553  0.97947359 -0.87976035 -1.24438772  1.89902775
  1.85243161 -0.33653989 -0.85199413  2.21152167 -0.65600668  0.90395464
 -0.16900267  1.93672303]
[ 1.06693287 -0.88242527  1.30712285  2.59395793  0.82434672  1.72755405
  0.71701163  1.99403965  1.81021553 -0.04901841 -0.7613836   1.41602364
  1.3694275  -0.819544   -1.68273606  1.72851756  0.17473525  1.73469657
  0.31400144  2.41972714]
[ 0.71919505 -1.2301631   0.95938502  2.94169575  1.17208454  2.07529187
  0.3692738   2.34177747  1.46247771 -0.39675624 -0.41364578  1.06828582
  1.02168968 -1.16728183 -1.33499824  1.38077974 -0.17300257  1.38695875
  0.66173927  2.76746497]
[ 0.5374895  -1.41186864  0.77767948  3.46338964  1.69377842  2.25699741
 -0.15242008  2.86347135  0.94078382 -0.57846178  0.1080481   0.54659193
  0.83998413 -1.34898737 -0.81330436  1.19907419 -0.35470812  0.86526486
  1.18343315  2.94917051]
[ 0.19750116 -1.75185698  0.43769114  3.1234013   1.35379009  2.59698575
  0.18756826  2.52348302  1.28077216 -0.91845012 -0.23194024  0.88658027
  0.49999579 -1.68897571 -1.15329269  0.85908585 -0.69469646  1.2052532
  0.84344481  3.28915885]
[ 0.69052674 -1.2588314   0.93071672  3.61642688  1.84681566  2.10396018
  0.0283276   2.68272367  0.78774658 -0.42542454  0.26108534  0.72733962
  0.99302137 -1.19595013 -0.66026712  1.35211143 -0.5354558   0.71222763
  1.33647039  3.1299182 ]
[ 0.35674182 -1.59261633  0.59693179  3.28264195  1.51303074  2.4377451
 -0.30545732  3.01650859  1.12153151 -0.75920947 -0.07269958  0.39355469
  0.65923645 -1.52973505 -0.99405204  1.01832651 -0.20167088  1.04601255
  1.00268547  2.79613327]
[ 0.60409828 -1.67388826  0.51565986  3.20137002  1.43175881  2.19038863
 -0.38672925  2.76915213  0.87417504 -0.8404814  -0.15397151  0.64091116
  0.90659291 -1.28237859 -0.74669557  0.93705458 -0.44902734  0.79865608
  1.25004193  3.04348974]
[ 0.27546988 -1.34525986  0.84428826  3.52999842  1.76038721  2.51901703
 -0.05810085  3.09778053  1.20280344 -0.511853    0.17465688  0.31228276
  0.57796452 -1.61100699 -1.07532397  1.26568297 -0.12039895  1.12728448
  0.92141354  2.71486134]
[ 0.11908399 -1.18887397  0.6764481   3.68638431  1.91677309  2.35117687
 -0.22594101  2.92994037  1.03496328 -0.35546711  0.00681672  0.15589687
  0.42157863 -1.44316683 -1.23170986  1.42206886  0.03598694  1.28367037
  0.76502765  2.8827015 ]
[ 0.44331004 -1.51310002  1.00067415  3.36215826  1.59254705  2.67540292
  0.09828503  3.25416642  1.35918933 -0.67969316  0.33104277  0.48012292
  0.74580468 -1.76739288 -0.90748381  1.09784281 -0.2882391   0.95944432
  1.08925369  2.55847545]
[ 0.38258075 -1.45237072  0.93994485  3.74327943  1.65327634  2.61467362
 -0.28283614  3.19343712  0.97806815 -0.29857199 -0.0500784   0.41939362
  0.3646835  -1.3862717  -1.28860499  1.15857211  0.09288207  1.3405655
  0.70813252  2.61920475]
[ 0.06218887 -1.13197885  0.61955297  3.42288756  1.97366822  2.29428175
  0.03755574  2.87304524  1.29846003 -0.61896387  0.27031348  0.09900175
  0.68507538 -1.70666358 -0.96821311  1.47896399 -0.22750981  1.02017362
  1.0285244   2.93959663]
[ 0.06028947 -1.44707998  0.93465411  3.73798869  1.65856709  2.29238235
 -0.2775454   2.87114584  1.30035943 -0.30386273 -0.04478766  0.41410288
  0.68697478 -1.70856298 -0.96631371  1.16386285 -0.22940921  1.01827422
  1.0304238   2.94149602]
[ 0.37729    -1.13007945  0.61765358  3.42098816  1.97556762  2.60938288
  0.03945514  3.18814638  0.9833589  -0.62086326  0.27221287  0.09710235
  0.36997424 -1.39156245 -1.28331424  1.48086339  0.08759133  1.33527475
  0.71342326  2.62449549]
[ 0.48184474 -1.02552471  0.82706246  3.63039704  2.08012235  2.399974
  0.14400987  2.97873749  0.87880416 -0.725418    0.37676761  0.30651123
  0.57938313 -1.28700771 -1.38786898  1.2714545   0.19214606  1.12586587
  0.92283215  2.51994075]
[ 0.16788112 -1.33948833  0.51309884  3.31643342  1.76615873  2.71393762
 -0.16995375  3.29270111  1.19276778 -0.41145438  0.06280399 -0.00745239
  0.26541951 -1.60097133 -1.07390536  1.58541812 -0.12181756  1.43982949
  0.60886853  2.83390438]
[ 4.88286185e-01 -1.01908327e+00  8.33503905e-01  3.63683849e+00
  1.77534725e+00  2.70474910e+00 -1.60765234e-01  3.28351260e+00
  8.72362715e-01 -7.31859444e-01  3.83209055e-01  1.73612701e-03
  5.85824573e-01 -1.59178282e+00 -1.08309387e+00  1.57622961e+00
  1.98587508e-01  1.43064098e+00  6.18057041e-01  2.51349931e+00]
[ 0.17706963 -1.33029982  0.52228735  3.32562194  2.0865638   2.39353255
  0.15045132  2.97229605  1.18357927 -0.42064289  0.0719925   0.31295268
  0.27460802 -1.28056626 -1.39431043  1.26501306 -0.11262904  1.11942442
  0.92927359  2.82471586]
[ 0.41830097 -0.78035777  1.07222941  3.87556399  1.84533247  2.63476388
 -0.39949074  3.5222381   0.94234793 -0.97058495  0.31322384  0.07172135
  0.82455008 -1.5217976  -1.15307909  1.81495511  0.43731301  1.66936648
  0.68804226  2.27477381]
[ 0.72701169 -1.08906849  0.76351869  3.56685327  1.53662175  2.94347461
 -0.09078001  3.21352738  0.63363721 -0.66187422  0.62193456 -0.23698938
  0.51583935 -1.83050832 -0.84436837  1.50624439  0.12860229  1.36065576
  0.37933154  2.58348453]
[ 0.53986113 -1.20832661  0.64426057  3.75400383  1.72377231  3.06273272
 -0.27793057  3.40067794  0.82078777 -0.84902478  0.74119267 -0.35624749
  0.39658124 -1.64335776 -1.03151893  1.38698627  0.31575285  1.54780632
  0.26007342  2.70274265]
[ 0.8462698  -0.90191793  0.95066925  3.44759515  1.41736363  2.75632405
  0.0284781   3.09426926  0.5143791  -0.54261611  0.434784   -0.04983882
  0.70298991 -1.94976644 -0.72511025  1.69339495  0.00934417  1.24139764
  0.5664821   2.39633397]
[ 0.60330954 -1.14487819  0.70770898  3.69055542  1.66032389  2.99928431
 -0.21448216  3.33722953  0.75733936 -0.78557637  0.37346331  0.01148188
  0.46002965 -1.70680617 -0.96807052  1.75471564  0.25230444  1.48435791
  0.32352183  2.63929424]
[ 0.9075905  -0.84059724  1.01198994  3.38627446  1.35604294  2.69500336
  0.08979879  3.03294857  0.4530584  -0.48129542  0.67774426 -0.29279908
  0.7643106  -2.01108713 -0.66378956  1.45043468 -0.05197652  1.18007695
  0.62780279  2.33501328]
[ 0.67634363 -0.76954012  1.08304706  3.31521734  1.28498582  2.62394623
  0.16085592  2.96189145  0.68430527 -0.71254228  0.4464974  -0.3638562
  0.83536773 -2.08214425 -0.59273244  1.37937756 -0.12303364  1.10901983
  0.69885991  2.26395616]
[ 0.97864762 -1.0718441   0.78074307  3.61752132  1.5872898   2.92625022
 -0.14144807  3.26419543  0.38200128 -0.41023829  0.74880139 -0.06155222
  0.53306374 -1.77984026 -0.89503643  1.68168155  0.17927034  1.41132381
  0.39655592  2.56626014]
[ 0.57938005 -0.67257653  0.87955203  3.21825375  1.18802223  2.82744126
 -0.04263911  2.86492786  0.78126885 -0.80950586  0.64999242 -0.16036118
  0.6318727  -2.17910783 -0.49576886  1.58287258  0.08046138  1.01205624
  0.49536489  2.46745118]
[ 0.87983865 -0.97303514  1.18001064  3.51871236  1.48848084  2.52698265
  0.2578195   3.16538647  0.48081025 -0.50904726  0.34953382 -0.46081979
  0.93233131 -1.87864922 -0.79622747  1.28241398 -0.21999723  1.31251485
  0.79582349  2.16699257]
[ 0.77244646 -0.86564294  1.07261844  3.71004922  1.6798177   2.63437485
  0.1504273   3.35672333  0.58820245 -0.61643946  0.45692601 -0.65215665
  1.12366817 -1.98604142 -0.98756432  1.38980618 -0.41133408  1.50385171
  0.6884313   2.27438477]
[ 1.07117551 -1.164372    1.3713475   3.41132016  1.38108864  2.33564579
  0.44915636  3.05799427  0.28947339 -0.3177104   0.15819696 -0.35342759
  0.82493911 -1.68731237 -0.68883527  1.09107712 -0.11260503  1.20512265
  0.98716035  1.97565572]
